{"learner":{"attributes":{"best_iteration":"11","best_score":"0.6601572089874354"},"feature_names":["xVar","yVar","sVar","sMax","dxVar","dyVar","xLOS","maxDepth","endDepth","sidelineDistMean","sidelineDistVar","oppDistMean","oppDistVar","oppDistMax","mateDistMean","mateDistVar","mateDistMax","dirDiffMean","dirDiffVar","diffOppMean","diffOppVar","diffQBMean","diffQBVar","lookingAtQBMean","lookingAtQBVar","ratMean","ratVar","route","Move Separation","Move Occurred","Time To Move","Release Burst","Sep Before Throw (f-2)","Max Speed Diff","Var Speed Diff","Mean Speed Diff"],"feature_types":[],"gradient_booster":{"model":{"gbtree_model_param":{"num_parallel_tree":"1","num_trees":"22"},"iteration_indptr":[0,1,2,3,4,5,6,7,8,9,10,11,12,13,14,15,16,17,18,19,20,21,22],"tree_info":[0,0,0,0,0,0,0,0,0,0,0,0,0,0,0,0,0,0,0,0,0,0],"trees":[{"base_weights":[-8.804023E-3,-3.4083843E-1,2.1717125E-1,-3.9147112E-1,6.139194E-1,-9.844375E-2,4.1845968E-1,-1.2112191E0,-3.4864515E-1,-1.1945652E-1,1.0740522E0,-3.5097614E-1,1.9297601E-1,1.22247525E-1,6.561394E-1,1.9171758E-2,-1.9011311E-1,-2.93851E-1,-9.485744E-1,-3.853748E-2,1.5397663E0,5.9282845E-1,-5.1826394E-1,7.818247E-1,2.0979982E-2,3.8265914E-1,-2.5029445E-1,-8.8273585E-1,7.10236E-1,-6.0716957E-1,-1.8361206E-1,-1.7811863E-1,-3.7847075E-1,2.4633953E-1,-1.142127E-2,1.0519778E0,-6.9063413E-1,-6.907398E-1,6.464929E-1,1.1066992E0,-7.8997E-2,2.9279897E-1,-3.3079076E-1,8.7509775E-1,-7.6493345E-2,6.813413E-1,-3.8702902E-1,-1.142127E-2,-1.539342E-1,1.087794E0,4.49997E-1,7.6108575E-2,-8.991129E-2,6.368811E-3,-5.5111878E-2,-1.4537172E-1,1.1119501E-1,-1.2806576E-1,2.0039421E-1,-1.2806576E-1,-1.142127E-2,-1.7937258E-1,-3.62747E-2,-9.932366E-2,1.9389972E-1,2.1282943E-1,3.794247E-2,-6.954176E-2,8.331568E-2,6.6101E-2,-1.09380215E-1,-1.2806576E-1,1.3117737E-1,-4.9629737E-2,1.2164983E-1,1.6376013E-1,-2.249116E-2,8.335289E-3,-1.09521136E-1,1.5255712E-1,-1.2806576E-1,9.045613E-2,-1.8355245E-2],"categories":[],"categories_nodes":[],"categories_segments":[],"categories_sizes":[],"default_left":[0,0,0,0,0,0,0,0,0,0,0,0,0,0,0,0,0,0,0,0,0,0,0,0,0,0,0,0,0,0,0,0,0,0,0,0,0,0,0,0,0,0,0,0,0,0,0,0,0,0,0,0,0,0,0,0,0,0,0,0,0,0,0,0,0,0,0,0,0,0,0,0,0,0,0,0,0,0,0,0,0,0,0],"id":0,"left_children":[1,3,5,7,9,11,13,15,17,-1,19,21,23,25,27,-1,-1,29,31,-1,33,35,37,39,41,43,45,47,49,51,53,-1,55,-1,-1,57,59,61,63,65,-1,67,69,71,73,75,77,-1,-1,79,81,-1,-1,-1,-1,-1,-1,-1,-1,-1,-1,-1,-1,-1,-1,-1,-1,-1,-1,-1,-1,-1,-1,-1,-1,-1,-1,-1,-1,-1,-1,-1,-1],"loss_changes":[4.1212097E1,1.0992701E1,2.080611E1,7.0143967E0,9.155371E0,9.49428E0,1.398386E1,3.643735E0,6.3851643E0,0E0,6.4376354E0,1.1198064E1,6.071701E0,8.842615E0,9.834438E0,0E0,0E0,6.3544655E0,3.43719E0,0E0,4.278536E0,7.121608E0,1.2324652E1,6.7904577E0,4.6435432E0,1.2154877E1,5.066002E0,8.984804E-1,1.0063236E1,5.2205963E0,7.824599E0,0E0,8.592427E0,0E0,0E0,9.846542E0,5.261575E-1,1.4340946E1,1.081762E1,4.4116955E0,0E0,8.201544E0,9.487119E0,7.381754E0,9.168333E0,2.773631E0,6.9241614E0,0E0,0E0,8.6936E0,9.552889E0,0E0,0E0,0E0,0E0,0E0,0E0,0E0,0E0,0E0,0E0,0E0,0E0,0E0,0E0,0E0,0E0,0E0,0E0,0E0,0E0,0E0,0E0,0E0,0E0,0E0,0E0,0E0,0E0,0E0,0E0,0E0,0E0],"parents":[2147483647,0,0,1,1,2,2,3,3,4,4,5,5,6,6,7,7,8,8,10,10,11,11,12,12,13,13,14,14,17,17,18,18,20,20,21,21,22,22,23,23,24,24,25,25,26,26,27,27,28,28,29,29,30,30,32,32,35,35,36,36,37,37,38,38,39,39,41,41,42,42,43,43,44,44,45,45,46,46,49,49,50,50],"right_children":[2,4,6,8,10,12,14,16,18,-1,20,22,24,26,28,-1,-1,30,32,-1,34,36,38,40,42,44,46,48,50,52,54,-1,56,-1,-1,58,60,62,64,66,-1,68,70,72,74,76,78,-1,-1,80,82,-1,-1,-1,-1,-1,-1,-1,-1,-1,-1,-1,-1,-1,-1,-1,-1,-1,-1,-1,-1,-1,-1,-1,-1,-1,-1,-1,-1,-1,-1,-1,-1],"split_conditions":[1.4599315E0,1.1817683E-1,2.7027028E-2,6.800482E-2,2.4390245E-2,6.5E1,4E0,6.61239E0,2.761545E-1,-1.1945652E-1,1.3549467E0,5.654475E-3,6.2333333E-1,6.64E0,1.5166667E0,1.9171758E-2,-1.9011311E-1,1.53E0,3.2330077E0,-3.853748E-2,7.27E0,1.8220906E0,1.780644E1,1.0970114E1,4.19E0,5.943185E-1,1.0714286E-1,1.3993759E0,1.03065535E-1,-8.229369E-1,2.7122316E0,-1.7811863E-1,1.8407778E1,2.4633953E-1,-1.142127E-2,5.887646E-3,1.777609E0,7.376234E-3,2.6215345E-2,3.753514E0,-7.8997E-2,1.3005883E0,8.472377E-1,3.7037037E-2,6.6915727E0,2.3668187E0,3.5265782E-1,-1.142127E-2,-1.539342E-1,2.9251351E0,7.09E0,7.6108575E-2,-8.991129E-2,6.368811E-3,-5.5111878E-2,-1.4537172E-1,1.1119501E-1,-1.2806576E-1,2.0039421E-1,-1.2806576E-1,-1.142127E-2,-1.7937258E-1,-3.62747E-2,-9.932366E-2,1.9389972E-1,2.1282943E-1,3.794247E-2,-6.954176E-2,8.331568E-2,6.6101E-2,-1.09380215E-1,-1.2806576E-1,1.3117737E-1,-4.9629737E-2,1.2164983E-1,1.6376013E-1,-2.249116E-2,8.335289E-3,-1.09521136E-1,1.5255712E-1,-1.2806576E-1,9.045613E-2,-1.8355245E-2],"split_indices":[32,28,24,20,24,6,27,16,26,0,11,26,35,3,31,0,0,33,15,0,3,15,13,16,3,12,23,2,24,17,13,0,9,0,0,22,0,5,26,11,0,35,25,24,0,21,20,0,0,21,3,0,0,0,0,0,0,0,0,0,0,0,0,0,0,0,0,0,0,0,0,0,0,0,0,0,0,0,0,0,0,0,0],"split_type":[0,0,0,0,0,0,0,0,0,0,0,0,0,0,0,0,0,0,0,0,0,0,0,0,0,0,0,0,0,0,0,0,0,0,0,0,0,0,0,0,0,0,0,0,0,0,0,0,0,0,0,0,0,0,0,0,0,0,0,0,0,0,0,0,0,0,0,0,0,0,0,0,0,0,0,0,0,0,0,0,0,0,0],"sum_hessian":[5.472769E2,2.2142303E2,3.258539E2,2.1083215E2,1.0590868E1,1.27090416E2,1.9876349E2,9.113072E0,2.0171909E2,2.2166932E0,8.374174E0,6.797859E1,5.911182E1,8.916033E1,1.09603165E2,1.4777955E0,7.635277E0,1.8620224E2,1.5516853E1,2.2166932E0,6.157481E0,9.85197E0,5.8126625E1,1.2561262E1,4.655056E1,5.2461742E1,3.669859E1,3.2018902E0,1.06401276E2,4.7289455E1,1.3891278E2,8.127875E0,7.3889775E0,4.925985E0,1.2314962E0,7.3889775E0,2.4629924E0,5.0983944E1,7.1426783E0,1.0344568E1,2.2166932E0,2.635402E1,2.0196539E1,2.4876225E1,2.7585516E1,4.187087E0,3.25115E1,1.2314962E0,1.970394E0,4.2117172E1,6.42841E1,2.7092917E0,4.4580166E1,7.093418E1,6.797859E1,4.6796856E0,2.7092917E0,1.2314962E0,6.157481E0,1.2314962E0,1.2314962E0,1.8226145E1,3.27578E1,2.7092917E0,4.4333863E0,5.6648827E0,4.6796856E0,7.635277E0,1.8718742E1,7.635277E0,1.2561262E1,1.2314962E0,2.3644728E1,2.1674334E1,5.911182E0,2.2166932E0,1.970394E0,1.6748348E1,1.5763152E1,4.0885677E1,1.2314962E0,4.531906E1,1.8965042E1],"tree_param":{"num_deleted":"0","num_feature":"36","num_nodes":"83","size_leaf_vector":"1"}},{"base_weights":[1.1861621E-2,-2.7162465E-1,1.8413888E-1,-1.732984E-1,-6.6291887E-1,-7.060614E-2,3.6596388E-1,-2.5370327E-1,4.2844853E-1,1.708504E-1,-7.52834E-1,3.2676387E-1,-2.9516417E-1,1.15666896E-1,6.1298615E-1,-1.8770047E-1,-1.0363004E0,1.6731009E-2,1.1980642E0,-2.4370875E-2,-9.158664E-1,6.899804E-1,-1.0441742E-1,-8.1660813E-1,-8.29386E-2,-7.453808E-1,2.1934809E-1,6.97423E-1,-5.2826446E-1,-2.947445E-1,3.827406E-1,-1.0934816E-2,-1.2167457E0,-3.878457E-1,1.190261E0,-3.2169481E-3,2.06638E-1,-7.7532834E-1,5.0051725E-1,2.5944306E-2,-1.1052276E0,-3.7904403E-1,8.2565343E-1,-7.350215E-1,4.3591812E-1,-2.698141E-1,-1.2005397E0,-2.956145E-1,8.1699884E-1,-1.2034794E0,4.0545326E-1,3.1248367E-1,-9.795025E-1,7.568275E-1,-8.742034E-1,-1.0958368E0,7.6934986E-2,2.1475025E-2,-5.8705688E-2,1.0145713E-1,-7.240302E-2,-4.0140543E-2,-1.9187436E-1,-8.7504186E-2,1.1920148E-1,4.563446E-2,1.8753624E-1,-1.4330728E-1,-3.2086573E-3,1.9798225E-1,-5.9388753E-2,-1.351752E-1,6.8806484E-2,-1.800201E-1,-5.8024846E-2,-1.3298538E-1,3.7095997E-2,1.21068455E-1,-5.4303944E-2,1.2636583E-1,-1.3844366E-1,1.10912316E-1,-3.8706806E-2,2.2940809E-2,-1.6804586E-1,-1.7648014E-1,2.3917573E-2,-7.4084915E-2,3.2034777E-2,-7.821907E-2,1.5013435E-1,-5.9710883E-2,-1.9196388E-1,1.7172551E-1,-8.7691456E-2,1.673963E-2,1.1573304E-1,-1.6623417E-1,-6.858753E-3,-5.1115725E-2,1.0657091E-1,-1.3478311E-2,-1.5396403E-1,-5.360592E-2,-1.6953331E-1],"categories":[],"categories_nodes":[],"categories_segments":[],"categories_sizes":[],"default_left":[0,0,0,0,0,0,0,0,0,0,0,0,0,0,0,0,0,0,0,0,0,0,0,0,0,0,0,0,0,0,0,0,0,0,0,0,0,0,0,0,0,0,0,0,0,0,0,0,0,0,0,0,0,0,0,0,0,0,0,0,0,0,0,0,0,0,0,0,0,0,0,0,0,0,0,0,0,0,0,0,0,0,0,0,0,0,0,0,0,0,0,0,0,0,0,0,0,0,0,0,0,0,0,0,0],"id":1,"left_children":[1,3,5,7,9,11,13,15,17,-1,19,21,23,25,27,29,31,33,35,37,39,41,43,45,47,49,51,53,55,57,59,-1,61,63,65,-1,-1,67,69,71,73,75,77,79,81,83,85,87,89,91,93,95,97,99,101,103,-1,-1,-1,-1,-1,-1,-1,-1,-1,-1,-1,-1,-1,-1,-1,-1,-1,-1,-1,-1,-1,-1,-1,-1,-1,-1,-1,-1,-1,-1,-1,-1,-1,-1,-1,-1,-1,-1,-1,-1,-1,-1,-1,-1,-1,-1,-1,-1,-1],"loss_changes":[2.755541E1,8.091326E0,1.6279373E1,8.421469E0,8.534443E0,1.3212281E1,1.2599047E1,7.6665096E0,6.5146847E0,0E0,4.8785076E0,8.458002E0,1.0383213E1,9.360344E0,1.0284416E1,8.7575E0,1.8937502E0,7.3221197E0,3.4573002E0,3.7675831E0,6.0373516E0,4.5473394E0,8.95845E0,5.387232E0,1.3301137E1,6.4446654E0,1.0658657E1,9.647118E0,5.513178E0,8.682602E0,8.931309E0,0E0,1.8124609E0,4.881319E0,3.2625866E-1,0E0,0E0,9.3146515E-1,6.2164235E0,4.0907183E0,4.529442E0,1.9872661E0,3.797144E0,7.8022594E0,4.613015E0,5.928484E0,3.626768E0,8.430598E0,7.0452785E0,1.0082817E0,4.800432E0,9.089717E0,1.8441162E0,6.9729004E0,8.2211137E-1,2.317481E-1,0E0,0E0,0E0,0E0,0E0,0E0,0E0,0E0,0E0,0E0,0E0,0E0,0E0,0E0,0E0,0E0,0E0,0E0,0E0,0E0,0E0,0E0,0E0,0E0,0E0,0E0,0E0,0E0,0E0,0E0,0E0,0E0,0E0,0E0,0E0,0E0,0E0,0E0,0E0,0E0,0E0,0E0,0E0,0E0,0E0,0E0,0E0,0E0,0E0],"parents":[2147483647,0,0,1,1,2,2,3,3,4,4,5,5,6,6,7,7,8,8,10,10,11,11,12,12,13,13,14,14,15,15,16,16,17,17,18,18,19,19,20,20,21,21,22,22,23,23,24,24,25,25,26,26,27,27,28,28,29,29,30,30,32,32,33,33,34,34,37,37,38,38,39,39,40,40,41,41,42,42,43,43,44,44,45,45,46,46,47,47,48,48,49,49,50,50,51,51,52,52,53,53,54,54,55,55],"right_children":[2,4,6,8,10,12,14,16,18,-1,20,22,24,26,28,30,32,34,36,38,40,42,44,46,48,50,52,54,56,58,60,-1,62,64,66,-1,-1,68,70,72,74,76,78,80,82,84,86,88,90,92,94,96,98,100,102,104,-1,-1,-1,-1,-1,-1,-1,-1,-1,-1,-1,-1,-1,-1,-1,-1,-1,-1,-1,-1,-1,-1,-1,-1,-1,-1,-1,-1,-1,-1,-1,-1,-1,-1,-1,-1,-1,-1,-1,-1,-1,-1,-1,-1,-1,-1,-1,-1,-1],"split_conditions":[1.42088E0,9.3939394E-1,4E0,2.9E1,3.1042018E0,2.992407E0,1.2798964E-2,3.1690633E-1,6E0,1.708504E-1,-2.4209978E-1,1.6250856E0,2.096187E0,3.5E1,1.638E1,4.1233335E0,-2.811685E-1,9.257804E0,1.2646821E-2,1.0334616E1,1.4543757E0,1.5614904E-1,1.511471E-1,3.488372E-1,2.0905924E-1,7.801419E-2,1.5333828E1,2.4370733E1,4.708965E0,2.7533333E0,2.57E0,-1.0934816E-2,1.1955155E0,1.1093686E1,3.1869712E-1,-3.2169481E-3,2.06638E-1,2.0162458E0,4.5725548E-1,4.4058824E-1,9.789994E0,1.2815522E1,4.5299178E-1,1.5802848E0,3.77E0,4.9260038E-1,2.086691E0,7.6E1,5.946129E-1,2.0408163E-2,7.090945E0,3.0917516E-1,1.3333912E-1,2.6E1,2.4280174E-2,1.2820512E-1,7.6934986E-2,2.1475025E-2,-5.8705688E-2,1.0145713E-1,-7.240302E-2,-4.0140543E-2,-1.9187436E-1,-8.7504186E-2,1.1920148E-1,4.563446E-2,1.8753624E-1,-1.4330728E-1,-3.2086573E-3,1.9798225E-1,-5.9388753E-2,-1.351752E-1,6.8806484E-2,-1.800201E-1,-5.8024846E-2,-1.3298538E-1,3.7095997E-2,1.21068455E-1,-5.4303944E-2,1.2636583E-1,-1.3844366E-1,1.10912316E-1,-3.8706806E-2,2.2940809E-2,-1.6804586E-1,-1.7648014E-1,2.3917573E-2,-7.4084915E-2,3.2034777E-2,-7.821907E-2,1.5013435E-1,-5.9710883E-2,-1.9196388E-1,1.7172551E-1,-8.7691456E-2,1.673963E-2,1.1573304E-1,-1.6623417E-1,-6.858753E-3,-5.1115725E-2,1.0657091E-1,-1.3478311E-2,-1.5396403E-1,-5.360592E-2,-1.6953331E-1],"split_indices":[32,23,27,30,14,13,4,26,27,0,28,15,32,6,7,31,17,14,26,9,11,25,24,23,24,24,1,1,12,31,33,0,1,15,17,0,0,11,12,35,14,16,25,32,31,20,19,6,1,23,14,20,22,6,4,23,0,0,0,0,0,0,0,0,0,0,0,0,0,0,0,0,0,0,0,0,0,0,0,0,0,0,0,0,0,0,0,0,0,0,0,0,0,0,0,0,0,0,0,0,0,0,0,0,0],"split_type":[0,0,0,0,0,0,0,0,0,0,0,0,0,0,0,0,0,0,0,0,0,0,0,0,0,0,0,0,0,0,0,0,0,0,0,0,0,0,0,0,0,0,0,0,0,0,0,0,0,0,0,0,0,0,0,0,0,0,0,0,0,0,0,0,0,0,0,0,0,0,0,0,0,0,0,0,0,0,0,0,0,0,0,0,0,0,0,0,0,0,0,0,0,0,0,0,0,0,0,0,0,0,0,0,0],"sum_hessian":[5.6219385E2,2.1228961E2,3.499042E2,1.7081044E2,4.1479168E1,1.4598473E2,2.039195E2,1.5118732E2,1.962312E1,1.2135786E0,4.026559E1,5.2546005E1,9.343871E1,1.0201766E2,1.0190183E2,1.4057161E2,1.0615707E1,1.3449725E1,6.173394E0,7.573787E0,3.2691803E1,2.8195011E1,2.4350994E1,2.6204851E1,6.7233864E1,1.0298865E1,9.1718796E1,9.524398E1,6.6578503E0,1.1876795E2,2.180366E1,1.9245781E0,8.69113E0,1.0499506E1,2.9502194E0,1.718239E0,4.455155E0,2.9195938E0,4.6541934E0,5.6171613E0,2.707464E1,2.9733045E0,2.5221706E1,1.1070615E1,1.3280378E1,1.1512109E1,1.4692742E1,5.4925274E1,1.2308589E1,7.3338304E0,2.965035E0,8.5793106E1,5.9256964E0,9.227462E1,2.9693615E0,4.4318385E0,2.2260115E0,3.0123367E1,8.8644585E1,1.5446294E1,6.357365E0,2.40544E0,6.2856894E0,9.016245E0,1.4832611E0,1.2298996E0,1.7203197E0,1.7104074E0,1.2091863E0,1.9665339E0,2.6876597E0,1.4598628E0,4.1572986E0,1.8273106E1,8.801536E0,1.2371455E0,1.7361588E0,2.3495926E1,1.7257799E0,1.4729806E0,9.597634E0,8.367936E0,4.912442E0,8.58857E0,2.9235396E0,1.3227541E1,1.465201E0,3.6459606E1,1.846567E1,2.210469E0,1.009812E1,2.6781635E0,4.655667E0,1.4848737E0,1.4801613E0,6.598245E1,1.9810654E1,4.1985116E0,1.7271847E0,4.4511356E0,8.782349E1,1.2314935E0,1.7378681E0,1.7235117E0,2.7083268E0],"tree_param":{"num_deleted":"0","num_feature":"36","num_nodes":"105","size_leaf_vector":"1"}},{"base_weights":[2.2695847E-2,-2.0114794E-1,1.5873142E-1,-1.4567284E-1,-8.60569E-1,-1.5146863E-1,3.1956044E-1,-5.5714536E-1,-5.312937E-2,9.43187E-2,-1.0982356E0,-6.69579E-1,-3.078215E-2,8.3585644E-1,2.427126E-1,3.8831506E-2,-9.5181966E-1,1.6183051E-1,-3.839543E-1,-1.2519227E0,4.9278187E-3,-8.2158697E-1,1.1436869E-1,-2.0364203E-1,5.874993E-1,-1.367726E-1,9.51092E-1,3.2637805E-1,-3.3100063E-1,5.360382E-1,-9.897622E-1,-1.0841515E0,4.861013E-2,3.7011272E-1,-1.184007E-1,-4.8872584E-1,8.5288036E-1,-1.4458324E0,-1.3947228E-2,5.0742496E-2,-9.80827E-1,-4.1891512E-1,2.667431E-1,8.203871E-1,-4.9962637E-1,-1.073772E-1,9.964484E-2,2.7237818E-1,1.1361281E0,8.386025E-1,2.1945451E-1,-8.7602854E-1,2.9575342E-1,-8.151341E-2,1.2226673E-1,-3.8205355E-3,-1.6470042E-1,-1.6590935E-1,2.5813926E-2,-7.749603E-2,6.202659E-2,5.328034E-2,-4.0782187E-2,3.561783E-3,-8.5618846E-2,2.0778172E-1,-2.3044491E-2,-1.9835515E-1,-5.5690076E-2,-1.21653005E-1,9.9582E-2,1.2279147E-2,-1.411331E-1,-6.873854E-2,7.6990515E-2,1.4531489E-1,-5.4650683E-2,1.3281389E-1,-3.0717863E-2,-1.5080148E-1,6.314711E-2,-5.1433347E-2,1.50709E-1,2.1209141E-2,1.6809344E-1,1.7055748E-1,4.5558386E-2,4.4005394E-2,-5.574881E-2,-1.5407574E-1,5.406366E-2,-1.2876348E-1,6.715136E-2],"categories":[],"categories_nodes":[],"categories_segments":[],"categories_sizes":[],"default_left":[0,0,0,0,0,0,0,0,0,0,0,0,0,0,0,0,0,0,0,0,0,0,0,0,0,0,0,0,0,0,0,0,0,0,0,0,0,0,0,0,0,0,0,0,0,0,0,0,0,0,0,0,0,0,0,0,0,0,0,0,0,0,0,0,0,0,0,0,0,0,0,0,0,0,0,0,0,0,0,0,0,0,0,0,0,0,0,0,0,0,0,0,0],"id":2,"left_children":[1,3,5,7,9,11,13,15,17,-1,19,21,23,25,27,29,31,33,35,37,-1,39,-1,41,43,45,47,49,51,53,55,57,-1,59,61,63,65,67,-1,69,71,73,75,77,79,-1,-1,81,83,85,87,89,91,-1,-1,-1,-1,-1,-1,-1,-1,-1,-1,-1,-1,-1,-1,-1,-1,-1,-1,-1,-1,-1,-1,-1,-1,-1,-1,-1,-1,-1,-1,-1,-1,-1,-1,-1,-1,-1,-1,-1,-1],"loss_changes":[1.7012987E1,7.602003E0,1.738089E1,7.435778E0,6.8950443E0,7.4392195E0,8.887659E0,8.47927E0,1.1522715E1,0E0,2.5748005E0,6.01558E0,1.0573271E1,3.4113045E0,9.748459E0,8.3348675E0,4.1987495E0,5.7864776E0,8.680362E0,2.6818638E0,0E0,2.9665184E0,0E0,7.9273186E0,5.885756E0,3.1008384E0,2.9934711E0,9.443476E0,9.160446E0,5.7165055E0,1.3727927E0,5.1242943E0,0E0,6.111482E0,4.522621E0,5.205405E0,4.3759813E0,2.1211624E-1,0E0,3.6666658E0,2.085535E0,6.2008247E0,1.4965885E1,4.0865097E0,3.4424515E0,0E0,0E0,4.5662866E0,2.8680992E0,6.4583054E0,1.1428717E1,6.1331644E0,4.152192E0,0E0,0E0,0E0,0E0,0E0,0E0,0E0,0E0,0E0,0E0,0E0,0E0,0E0,0E0,0E0,0E0,0E0,0E0,0E0,0E0,0E0,0E0,0E0,0E0,0E0,0E0,0E0,0E0,0E0,0E0,0E0,0E0,0E0,0E0,0E0,0E0,0E0,0E0,0E0,0E0],"parents":[2147483647,0,0,1,1,2,2,3,3,4,4,5,5,6,6,7,7,8,8,10,10,11,11,12,12,13,13,14,14,15,15,16,16,17,17,18,18,19,19,21,21,23,23,24,24,25,25,26,26,27,27,28,28,29,29,30,30,31,31,33,33,34,34,35,35,36,36,37,37,39,39,40,40,41,41,42,42,43,43,44,44,47,47,48,48,49,49,50,50,51,51,52,52],"right_children":[2,4,6,8,10,12,14,16,18,-1,20,22,24,26,28,30,32,34,36,38,-1,40,-1,42,44,46,48,50,52,54,56,58,-1,60,62,64,66,68,-1,70,72,74,76,78,80,-1,-1,82,84,86,88,90,92,-1,-1,-1,-1,-1,-1,-1,-1,-1,-1,-1,-1,-1,-1,-1,-1,-1,-1,-1,-1,-1,-1,-1,-1,-1,-1,-1,-1,-1,-1,-1,-1,-1,-1,-1,-1,-1,-1,-1,-1],"split_conditions":[1.42088E0,2.1768725E0,2.0408163E-2,2.2329032E-1,1.3476019E-1,2.250177E-3,5.657031E0,9.6767646E-1,1.9733416E-2,9.43187E-2,2.5850995E0,3.1304E0,6.88571E0,3.486906E-3,4.5918417E0,2.3E1,2.0246862E1,1.8711126E0,1.382068E0,1.077E1,4.9278187E-3,3.1953895E0,1.1436869E-1,1.8136301E0,4.41237E0,1.1253194E0,3.8180754E0,1.7831498E-1,1.7618958E1,1.842321E-1,8.0072775E0,6.584506E-1,4.861013E-2,1.2887938E0,2E0,2.1606019E0,2.9388836E-1,4.269407E-1,-1.3947228E-2,2.4319759E-2,1.793868E-3,3E1,5.921311E-1,3.3223487E-2,1.361743E1,-1.073772E-1,9.964484E-2,1.6734143E-1,9.2451465E-1,1.2923351E-1,9.5889306E-1,4.5529634E-2,3.290199E-2,-8.151341E-2,1.2226673E-1,-3.8205355E-3,-1.6470042E-1,-1.6590935E-1,2.5813926E-2,-7.749603E-2,6.202659E-2,5.328034E-2,-4.0782187E-2,3.561783E-3,-8.5618846E-2,2.0778172E-1,-2.3044491E-2,-1.9835515E-1,-5.5690076E-2,-1.21653005E-1,9.9582E-2,1.2279147E-2,-1.411331E-1,-6.873854E-2,7.6990515E-2,1.4531489E-1,-5.4650683E-2,1.3281389E-1,-3.0717863E-2,-1.5080148E-1,6.314711E-2,-5.1433347E-2,1.50709E-1,2.1209141E-2,1.6809344E-1,1.7055748E-1,4.5558386E-2,4.4005394E-2,-5.574881E-2,-1.5407574E-1,5.406366E-2,-1.2876348E-1,6.715136E-2],"split_indices":[32,19,24,1,18,4,16,0,5,0,19,35,32,5,12,30,9,11,17,7,0,11,0,19,10,34,16,1,9,12,16,20,0,11,27,13,20,26,0,20,26,30,15,4,32,0,0,24,19,24,17,4,22,0,0,0,0,0,0,0,0,0,0,0,0,0,0,0,0,0,0,0,0,0,0,0,0,0,0,0,0,0,0,0,0,0,0,0,0,0,0,0,0],"split_type":[0,0,0,0,0,0,0,0,0,0,0,0,0,0,0,0,0,0,0,0,0,0,0,0,0,0,0,0,0,0,0,0,0,0,0,0,0,0,0,0,0,0,0,0,0,0,0,0,0,0,0,0,0,0,0,0,0,0,0,0,0,0,0,0,0,0,0,0,0,0,0,0,0,0,0,0,0,0,0,0,0,0,0,0,0,0,0,0,0,0,0,0,0],"sum_hessian":[5.566571E2,2.1023726E2,3.4641983E2,1.9504927E2,1.5187996E1,1.1830208E2,2.2811774E2,3.489162E1,1.6015765E2,1.7129534E0,1.3475042E1,2.1491291E1,9.681079E1,2.8275345E1,1.9984239E2,1.4259982E1,2.0631638E1,9.738845E1,6.27692E1,1.1779596E1,1.695446E0,1.9997442E1,1.4938492E0,7.618228E1,2.0628504E1,2.9753594E0,2.5299986E1,1.7478444E2,2.5057957E1,9.935955E0,4.3240275E0,1.8924068E1,1.7075688E0,5.5681995E1,4.1706455E1,5.8424915E1,4.3442826E0,9.84838E0,1.931216E0,3.1921172E0,1.6805326E1,5.2338734E1,2.384355E1,1.7191122E1,3.4373803E0,1.7365775E0,1.2387819E0,5.9494357E0,1.935055E1,2.9002584E1,1.4578185E2,1.3190083E1,1.1867874E1,2.4176219E0,7.518333E0,1.2113618E0,3.112666E0,1.6480272E1,2.4437954E0,5.074448E0,5.0607548E1,1.0953386E1,3.075307E1,1.462841E1,4.3796505E1,2.203319E0,2.1409638E0,8.683468E0,1.1649116E0,1.2119329E0,1.9801843E0,1.4847687E0,1.5320557E1,4.7662903E1,4.6758337E0,1.037608E1,1.3467471E1,1.4481863E1,2.7092602E0,1.9534779E0,1.4839026E0,3.708077E0,2.2413588E0,2.9473727E0,1.6403177E1,1.3896696E1,1.5105888E1,1.23615425E2,2.2166424E1,1.0718414E1,2.471668E0,1.2251922E0,1.0642682E1],"tree_param":{"num_deleted":"0","num_feature":"36","num_nodes":"93","size_leaf_vector":"1"}},{"base_weights":[6.7421272E-3,-1.9851011E-1,1.3303816E-1,2.5961933E-1,-3.087925E-1,1.5430856E-1,-9.4358015E-1,-1.4132214E-1,8.360756E-1,-3.5999417E-1,2.4988501E-1,6.783335E-2,4.728108E-1,-1.639677E-1,3.563444E-2,1.977009E-1,-7.312428E-1,1.159617E0,-5.6529436E-3,-2.5943846E-1,-6.83753E-1,-5.277976E-1,7.5942886E-1,1.1961156E-1,-6.969431E-1,1.2564116E0,1.5314263E-1,-5.444232E-1,7.2990644E-1,1.8928114E-1,-1.0763385E0,1.3767539E0,-3.5619777E-2,-1.0278556E-1,6.6408885E-1,-1.9741757E-1,-1.1627647E0,-3.8873863E-1,-1.1703428E0,-1.6203338E-1,3.733101E-1,1.0760146E0,-7.758546E-2,7.583861E-2,9.0939695E-1,-8.5566574E-1,9.778662E-2,8.94806E-3,1.3910701E0,4.1143242E-1,-4.952567E-1,8.4727295E-2,-1.4894961E-1,1.5462522E-1,-1.0664674E-1,1.1102427E-1,-7.2414145E-2,-5.721989E-3,-1.6693068E-1,2.0191827E-1,-2.917135E-3,1.7123401E-1,-2.536715E-2,-3.7847035E-2,1.1221996E-1,2.5847263E-3,-1.8016723E-1,5.4759063E-2,-8.301271E-2,-1.8288678E-1,-1.047515E-2,-7.555812E-2,1.6213086E-1,-2.9884245E-2,1.8227297E-1,-1.2956459E-2,3.924662E-2,1.50562E-1,-5.9081804E-2,3.8818132E-2,-1.3850598E-1,1.9568016E-1,7.1444646E-3,-9.365124E-2,7.451053E-2,-1.3027368E-1,4.9298167E-2],"categories":[],"categories_nodes":[],"categories_segments":[],"categories_sizes":[],"default_left":[0,0,0,0,0,0,0,0,0,0,0,0,0,0,0,0,0,0,0,0,0,0,0,0,0,0,0,0,0,0,0,0,0,0,0,0,0,0,0,0,0,0,0,0,0,0,0,0,0,0,0,0,0,0,0,0,0,0,0,0,0,0,0,0,0,0,0,0,0,0,0,0,0,0,0,0,0,0,0,0,0,0,0,0,0,0,0],"id":3,"left_children":[1,3,5,7,9,11,13,15,17,19,21,23,25,-1,-1,27,29,31,33,35,37,39,41,43,45,47,49,51,53,55,57,59,-1,-1,61,63,65,67,69,-1,71,73,-1,75,77,79,-1,-1,81,83,85,-1,-1,-1,-1,-1,-1,-1,-1,-1,-1,-1,-1,-1,-1,-1,-1,-1,-1,-1,-1,-1,-1,-1,-1,-1,-1,-1,-1,-1,-1,-1,-1,-1,-1,-1,-1],"loss_changes":[1.4452151E1,1.0810649E1,8.048624E0,9.767624E0,4.99963E0,9.312619E0,2.973589E0,5.24028E0,4.7100286E0,4.954569E0,6.344667E0,1.0695918E1,1.7913086E1,0E0,0E0,7.0988927E0,3.2252436E0,4.261032E0,3.5654E0,6.599354E0,4.8199253E0,4.6834655E0,4.7064815E0,8.638201E0,4.583188E0,3.2315025E0,8.99213E0,6.2391467E0,8.2914295E0,2.179355E0,1.4488821E0,2.724968E0,0E0,0E0,2.3086023E0,1.1657289E1,2.0260477E0,5.183243E0,3.3103008E0,0E0,3.7709985E0,3.7261343E0,0E0,9.520672E0,4.956933E0,4.1478577E0,0E0,0E0,2.7178001E0,7.348443E0,7.187553E0,0E0,0E0,0E0,0E0,0E0,0E0,0E0,0E0,0E0,0E0,0E0,0E0,0E0,0E0,0E0,0E0,0E0,0E0,0E0,0E0,0E0,0E0,0E0,0E0,0E0,0E0,0E0,0E0,0E0,0E0,0E0,0E0,0E0,0E0,0E0,0E0],"parents":[2147483647,0,0,1,1,2,2,3,3,4,4,5,5,6,6,7,7,8,8,9,9,10,10,11,11,12,12,15,15,16,16,17,17,18,18,19,19,20,20,21,21,22,22,23,23,24,24,25,25,26,26,27,27,28,28,29,29,30,30,31,31,34,34,35,35,36,36,37,37,38,38,40,40,41,41,43,43,44,44,45,45,48,48,49,49,50,50],"right_children":[2,4,6,8,10,12,14,16,18,20,22,24,26,-1,-1,28,30,32,34,36,38,40,42,44,46,48,50,52,54,56,58,60,-1,-1,62,64,66,68,70,-1,72,74,-1,76,78,80,-1,-1,82,84,86,-1,-1,-1,-1,-1,-1,-1,-1,-1,-1,-1,-1,-1,-1,-1,-1,-1,-1,-1,-1,-1,-1,-1,-1,-1,-1,-1,-1,-1,-1,-1,-1,-1,-1,-1,-1],"split_conditions":[1.4289856E0,3.6E1,9.763416E-1,3.4433334E0,1.382068E0,6.9197254E0,1.2302176E0,1.1613675E-2,1.9983696E-2,8.974359E-1,9.466476E0,8.872231E0,2.4018674E-1,-1.639677E-1,3.563444E-2,7.8901224E-2,2.6E1,7.35E0,3.0687702E0,4.5918417E0,5.93E0,5.7E1,6.118711E0,2.3423423E-1,1.4971429E0,2.3809524E-2,7.195002E-2,1.4081017E0,2.9148757E0,1.1480854E0,2.73E0,3.82E0,-3.5619777E-2,-1.0278556E-1,5.786534E0,4.4333334E0,-5.476526E-1,1.2723912E0,1.9272395E0,-1.6203338E-1,3.63E0,5.6743614E-2,-7.758546E-2,6.5E1,2.542517E-1,4.4444446E-2,9.778662E-2,8.94806E-3,1.47000265E1,-3.8311666E-1,2.45E0,8.4727295E-2,-1.4894961E-1,1.5462522E-1,-1.0664674E-1,1.1102427E-1,-7.2414145E-2,-5.721989E-3,-1.6693068E-1,2.0191827E-1,-2.917135E-3,1.7123401E-1,-2.536715E-2,-3.7847035E-2,1.1221996E-1,2.5847263E-3,-1.8016723E-1,5.4759063E-2,-8.301271E-2,-1.8288678E-1,-1.047515E-2,-7.555812E-2,1.6213086E-1,-2.9884245E-2,1.8227297E-1,-1.2956459E-2,3.924662E-2,1.50562E-1,-5.9081804E-2,3.8818132E-2,-1.3850598E-1,1.9568016E-1,7.1444646E-3,-9.365124E-2,7.451053E-2,-1.3027368E-1,4.9298167E-2],"split_indices":[32,6,20,31,17,0,20,5,5,23,9,10,20,0,0,24,6,3,10,12,3,6,18,24,35,23,4,19,13,32,7,33,0,0,0,31,17,19,19,0,7,12,0,6,24,23,0,0,10,17,33,0,0,0,0,0,0,0,0,0,0,0,0,0,0,0,0,0,0,0,0,0,0,0,0,0,0,0,0,0,0,0,0,0,0,0,0],"split_type":[0,0,0,0,0,0,0,0,0,0,0,0,0,0,0,0,0,0,0,0,0,0,0,0,0,0,0,0,0,0,0,0,0,0,0,0,0,0,0,0,0,0,0,0,0,0,0,0,0,0,0,0,0,0,0,0,0,0,0,0,0,0,0,0,0,0,0,0,0,0,0,0,0,0,0,0,0,0,0,0,0,0,0,0,0,0,0],"sum_hessian":[5.554941E2,2.1138547E2,3.441086E2,4.074996E1,1.7063551E2,3.3828198E2,5.826654E0,2.4478987E1,1.6270975E1,1.5663579E2,1.3999726E1,2.670023E2,7.1279686E1,4.5972967E0,1.2293572E0,1.5967468E1,8.511518E0,1.1480478E1,4.790497E0,1.2089007E2,3.5745716E1,5.5275593E0,8.472167E0,2.5086162E2,1.6140665E1,1.980397E1,5.147572E1,6.6589975E0,9.308472E0,2.4439433E0,6.067574E0,1.0004342E1,1.4761363E0,2.1242514E0,2.6662455E0,1.14263466E2,6.626597E0,2.3373507E1,1.23722105E1,2.8653228E0,2.6622367E0,7.0353336E0,1.4368336E0,2.387265E2,1.2135118E1,1.4915266E1,1.2253984E0,2.1705763E0,1.7633394E1,3.7073112E1,1.4402605E1,2.1970658E0,4.4619317E0,7.3639197E0,1.9445517E0,1.216782E0,1.2271613E0,1.2126149E0,4.854959E0,8.796955E0,1.2073864E0,1.2138076E0,1.4524378E0,1.05676056E2,8.587413E0,1.1893322E0,5.4372644E0,5.338028E0,1.8035479E1,9.940334E0,2.4318764E0,1.4315958E0,1.2306408E0,1.4587338E0,5.5765996E0,1.3465446E2,1.0407204E2,1.0398978E1,1.7361389E0,2.2173853E0,1.2697881E1,1.614878E1,1.4846126E0,4.1895666E0,3.2883545E1,9.031654E0,5.370951E0],"tree_param":{"num_deleted":"0","num_feature":"36","num_nodes":"87","size_leaf_vector":"1"}},{"base_weights":[3.7404313E-3,-1.9751684E-1,1.2955362E-1,-4.4423732E-1,-3.2277644E-2,1.5348558E-1,-1.008002E0,-5.28754E-1,2.1083246E-1,5.4156497E-2,-9.9618965E-1,-2.9882332E-2,2.7260336E-1,-1.1703238E0,-1.5581926E-2,-2.5524285E-1,-9.0006703E-1,9.2474914E-1,-5.305327E-1,8.977199E-1,-2.330602E-2,-5.817785E-4,-1.6339144E-1,-1.02835916E-1,8.383079E-1,1.9999434E-1,8.0939883E-1,-5.249979E-2,-1.8058439E-1,-1.212962E0,-9.9942595E-2,-1.0580176E0,-3.0201185E-1,-6.6974565E-2,1.8647632E-1,7.334725E-2,-1.3451503E-1,3.9808303E-1,2.1334818E-1,1.0107611E0,-9.381679E-2,-2.2563626E-1,3.077817E-1,-7.628581E-2,1.28827E0,2.7948755E-1,-4.4911274E-1,1.2765082E0,2.579405E-1,-1.7230688E-1,-5.1301055E-2,3.1748954E-2,-7.0234135E-2,-1.5887278E-1,4.4485673E-2,5.6722924E-2,-1.1143309E-1,1.0007333E-1,-5.4709904E-2,3.174167E-2,2.1440203E-1,1.4000208E-2,-5.7985466E-2,-9.87581E-3,-9.630026E-2,-7.3703244E-2,7.880038E-2,2.0215097E-1,-1.5075947E-2,5.5323854E-2,-1.9595383E-2,1.3584262E-1,-8.749108E-2,2.2113179E-1,-4.1251358E-2,1.3672191E-1,-1.4748553E-2],"categories":[],"categories_nodes":[],"categories_segments":[],"categories_sizes":[],"default_left":[0,0,0,0,0,0,0,0,0,0,0,0,0,0,0,0,0,0,0,0,0,0,0,0,0,0,0,0,0,0,0,0,0,0,0,0,0,0,0,0,0,0,0,0,0,0,0,0,0,0,0,0,0,0,0,0,0,0,0,0,0,0,0,0,0,0,0,0,0,0,0,0,0,0,0,0,0],"id":4,"left_children":[1,3,5,7,9,11,13,15,17,19,21,23,25,27,-1,29,31,33,35,37,39,-1,-1,41,43,45,47,-1,-1,49,51,53,55,-1,-1,-1,-1,57,-1,59,61,63,65,-1,67,69,71,73,75,-1,-1,-1,-1,-1,-1,-1,-1,-1,-1,-1,-1,-1,-1,-1,-1,-1,-1,-1,-1,-1,-1,-1,-1,-1,-1,-1,-1],"loss_changes":[1.396966E1,8.637856E0,9.3962965E0,4.8201256E0,1.0733432E1,7.2890553E0,8.874531E-1,7.449547E0,6.012985E0,7.769629E0,2.7197275E0,8.457459E0,7.7179327E0,4.2515182E-1,0E0,6.562498E0,2.6727905E0,4.891089E0,3.749376E0,3.052122E0,8.084888E0,0E0,0E0,6.2622337E0,7.3918586E0,9.383007E0,5.79107E0,0E0,0E0,3.9772034E-2,6.143481E0,6.033886E0,3.6517947E0,0E0,0E0,0E0,0E0,2.5373E0,0E0,3.0548873E0,7.3794904E0,7.2697234E0,7.810145E0,0E0,3.224125E0,1.0111055E1,7.350154E0,9.030443E0,3.6941133E0,0E0,0E0,0E0,0E0,0E0,0E0,0E0,0E0,0E0,0E0,0E0,0E0,0E0,0E0,0E0,0E0,0E0,0E0,0E0,0E0,0E0,0E0,0E0,0E0,0E0,0E0,0E0,0E0],"parents":[2147483647,0,0,1,1,2,2,3,3,4,4,5,5,6,6,7,7,8,8,9,9,10,10,11,11,12,12,13,13,15,15,16,16,17,17,18,18,19,19,20,20,23,23,24,24,25,25,26,26,29,29,30,30,31,31,32,32,37,37,39,39,40,40,41,41,42,42,44,44,45,45,46,46,47,47,48,48],"right_children":[2,4,6,8,10,12,14,16,18,20,22,24,26,28,-1,30,32,34,36,38,40,-1,-1,42,44,46,48,-1,-1,50,52,54,56,-1,-1,-1,-1,58,-1,60,62,64,66,-1,68,70,72,74,76,-1,-1,-1,-1,-1,-1,-1,-1,-1,-1,-1,-1,-1,-1,-1,-1,-1,-1,-1,-1,-1,-1,-1,-1,-1,-1,-1,-1],"split_conditions":[1.42088E0,3.4929013E-1,1.4842968E1,1.1744444E0,2.4157956E-1,2.9411765E-2,2.1518406E-2,2.5263765E-1,2.5876822E0,1.6389556E-1,3.4276375E-1,1.6290197E1,2.1802084E1,8.740914E-1,-1.5581926E-2,4.4058824E-1,8.987791E-1,4.357348E-3,3.1562108E-1,3.1967087E0,3.1416667E-1,-5.817785E-4,-1.6339144E-1,1.9272395E0,1.782718E-2,1.2030635E1,1.9480866E-1,-5.249979E-2,-1.8058439E-1,1.3320909E1,1.173925E0,1.9181614E0,1.4679922E0,-6.6974565E-2,1.8647632E-1,7.334725E-2,-1.3451503E-1,9.650585E0,2.1334818E-1,2.2878788E-1,1.9733416E-2,1.6261739E-1,4.2830635E-2,-7.628581E-2,1.574098E0,1.1467423E1,6.048387E-2,2.1724138E-1,3.5761943E-1,-1.7230688E-1,-5.1301055E-2,3.1748954E-2,-7.0234135E-2,-1.5887278E-1,4.4485673E-2,5.6722924E-2,-1.1143309E-1,1.0007333E-1,-5.4709904E-2,3.174167E-2,2.1440203E-1,1.4000208E-2,-5.7985466E-2,-9.87581E-3,-9.630026E-2,-7.3703244E-2,7.880038E-2,2.0215097E-1,-1.5075947E-2,5.5323854E-2,-1.9595383E-2,1.3584262E-1,-8.749108E-2,2.2113179E-1,-4.1251358E-2,1.3672191E-1,-1.4748553E-2],"split_indices":[32,34,14,35,24,24,26,12,13,18,20,13,9,0,0,35,17,26,15,15,35,0,0,19,26,1,17,0,0,16,32,19,19,0,0,0,0,16,0,35,5,26,20,0,25,16,24,24,0,0,0,0,0,0,0,0,0,0,0,0,0,0,0,0,0,0,0,0,0,0,0,0,0,0,0,0,0],"split_type":[0,0,0,0,0,0,0,0,0,0,0,0,0,0,0,0,0,0,0,0,0,0,0,0,0,0,0,0,0,0,0,0,0,0,0,0,0,0,0,0,0,0,0,0,0,0,0,0,0,0,0,0,0,0,0,0,0,0,0,0,0,0,0,0,0,0,0,0,0,0,0,0,0,0,0,0,0],"sum_hessian":[5.4969586E2,2.1123058E2,3.3846527E2,8.4048454E1,1.2718212E2,3.323386E2,6.1266856E0,7.461456E1,9.43389E0,1.1758231E2,9.599809E0,1.3116876E2,2.0116983E2,4.911621E0,1.2150643E0,4.3937428E1,3.0677134E1,4.6799E0,4.75399E0,8.998622E0,1.0858369E2,2.20033E0,7.3994784E0,1.21814316E2,9.354444E0,1.7840999E2,2.2759851E1,1.7147312E0,3.19689E0,5.180352E0,3.8757076E1,2.3659416E1,7.0177174E0,1.2176064E0,3.4622936E0,1.4594147E0,3.2945752E0,6.294519E0,2.7041032E0,6.0802126E0,1.0250348E2,9.411773E1,2.7696589E1,2.1729057E0,7.1815386E0,1.5945204E2,1.8957943E1,1.1610479E1,1.1149373E1,4.018626E0,1.1617258E0,2.1998058E1,1.6759016E1,2.1310331E1,2.3490844E0,3.1017323E0,3.915985E0,4.373405E0,1.9211136E0,3.3853939E0,2.694819E0,6.5623245E1,3.6880234E1,7.378174E1,2.0335989E1,6.8071394E0,2.088945E1,5.9520016E0,1.2295369E0,1.1912964E2,4.03224E1,1.9869564E0,1.6970987E1,9.124348E0,2.4861314E0,2.9729679E0,8.176405E0],"tree_param":{"num_deleted":"0","num_feature":"36","num_nodes":"77","size_leaf_vector":"1"}},{"base_weights":[4.4208555E-3,-3.3585513E-1,7.976326E-2,5.941191E-1,-4.0268564E-1,-1.3087802E-1,1.9382367E-1,-5.104141E-1,1.7703035E-1,4.7599182E-1,-4.764024E-1,1.0965012E0,-1.670489E-1,2.5245196E-1,-3.226247E-1,-1.3547951E-1,3.963617E-2,1.0952008E0,-1.3247257E-1,-1.1612878E0,-3.7316066E-1,-1.3505935E-2,2.0040914E-1,-4.6650535E-1,-1.8107004E-2,1.8604454E-1,1.0094966E0,6.725549E-1,-4.8472056E-1,3.0130526E-2,1.8188456E-1,9.826438E-2,-6.449673E-1,-1.2970381E0,-4.1397694E-3,-4.265115E-1,1.4501886E-1,-8.770297E-2,-7.5894165E-1,-9.414171E-1,5.966676E-2,2.9869646E-1,-1.4788361E-1,-1.6207865E-2,1.2124774E0,-1.941968E-3,1.6767657E-1,-6.866768E-1,2.3011799E-1,-1.2736452E-1,2.9314903E-3,-4.5591388E-2,-1.8873182E-1,5.3347975E-2,-6.963491E-2,8.643479E-2,-6.1333016E-2,-1.15780726E-1,1.0624101E-2,-1.5348706E-1,2.9345397E-2,9.019492E-2,-1.1080802E-2,1.1877601E-1,3.1257983E-2,2.2045432E-2,-4.9968127E-2,1.3320594E-1,-9.514395E-2,4.280072E-2,2.0557284E-1,-5.486398E-2,-1.6304246E-1,1.397494E-1,-5.8029007E-2],"categories":[],"categories_nodes":[],"categories_segments":[],"categories_sizes":[],"default_left":[0,0,0,0,0,0,0,0,0,0,0,0,0,0,0,0,0,0,0,0,0,0,0,0,0,0,0,0,0,0,0,0,0,0,0,0,0,0,0,0,0,0,0,0,0,0,0,0,0,0,0,0,0,0,0,0,0,0,0,0,0,0,0,0,0,0,0,0,0,0,0,0,0,0,0],"id":5,"left_children":[1,3,5,7,9,11,13,15,-1,17,19,21,23,25,27,-1,-1,29,31,33,35,-1,-1,37,39,41,43,45,47,-1,-1,-1,49,51,-1,53,-1,55,57,59,61,63,65,67,69,-1,-1,71,73,-1,-1,-1,-1,-1,-1,-1,-1,-1,-1,-1,-1,-1,-1,-1,-1,-1,-1,-1,-1,-1,-1,-1,-1,-1,-1],"loss_changes":[1.4108246E1,6.439415E0,1.084896E1,6.695949E0,6.2939405E0,7.235239E0,8.942489E0,1.8874154E0,0E0,3.0651217E0,5.712494E0,2.6500869E0,6.9122686E0,1.3053038E1,5.2096996E0,0E0,0E0,7.076826E-1,2.6707294E0,1.6319141E0,6.586097E0,0E0,0E0,5.6384573E0,7.5722146E0,9.198911E0,4.394764E0,1.9917846E0,4.000337E0,0E0,0E0,0E0,8.200153E-1,9.0050316E-1,0E0,7.0339212E0,0E0,7.1093826E0,3.2508183E0,2.5400953E0,8.999088E0,6.3306065E0,4.712848E0,4.061903E0,5.174841E0,0E0,0E0,2.6240778E0,4.2496715E0,0E0,0E0,0E0,0E0,0E0,0E0,0E0,0E0,0E0,0E0,0E0,0E0,0E0,0E0,0E0,0E0,0E0,0E0,0E0,0E0,0E0,0E0,0E0,0E0,0E0,0E0],"parents":[2147483647,0,0,1,1,2,2,3,3,4,4,5,5,6,6,7,7,9,9,10,10,11,11,12,12,13,13,14,14,17,17,18,18,19,19,20,20,23,23,24,24,25,25,26,26,27,27,28,28,32,32,33,33,35,35,37,37,38,38,39,39,40,40,41,41,42,42,43,43,44,44,47,47,48,48],"right_children":[2,4,6,8,10,12,14,16,-1,18,20,22,24,26,28,-1,-1,30,32,34,36,-1,-1,38,40,42,44,46,48,-1,-1,-1,50,52,-1,54,-1,56,58,60,62,64,66,68,70,-1,-1,72,74,-1,-1,-1,-1,-1,-1,-1,-1,-1,-1,-1,-1,-1,-1,-1,-1,-1,-1,-1,-1,-1,-1,-1,-1,-1,-1],"split_conditions":[1.48E0,6E-1,2.8571429E-2,2.8678698E-2,1.4790337E-1,1.8801063E0,4.975022E0,1.7234848E-1,1.7703035E-1,1.24E0,6.800482E-2,5.3432632E-2,1.7340127E0,1.8322775E-1,1.8859985E0,-1.3547951E-1,3.963617E-2,1.13304496E-1,5.453245E0,7.3331666E0,1.05E2,-1.3505935E-2,2.0040914E-1,1.249377E0,2.07E0,5.6980886E-2,4.184472E-3,2.0216208E0,4.5529634E-2,3.0130526E-2,1.8188456E-1,9.826438E-2,2.4924058E-2,1.884389E-3,-4.1397694E-3,1.6012897E-1,1.4501886E-1,1.1586379E0,1.18E1,5.62E0,3.609982E-3,6.2866025E-2,9.104E-1,1.0674309E0,3.5E1,-1.941968E-3,1.6767657E-1,1.6E1,6.387615E0,-1.2736452E-1,2.9314903E-3,-4.5591388E-2,-1.8873182E-1,5.3347975E-2,-6.963491E-2,8.643479E-2,-6.1333016E-2,-1.15780726E-1,1.0624101E-2,-1.5348706E-1,2.9345397E-2,9.019492E-2,-1.1080802E-2,1.1877601E-1,3.1257983E-2,2.2045432E-2,-4.9968127E-2,1.3320594E-1,-9.514395E-2,4.280072E-2,2.0557284E-1,-5.486398E-2,-1.6304246E-1,1.397494E-1,-5.8029007E-2],"split_indices":[33,33,24,34,18,13,12,24,0,33,20,12,32,28,2,0,0,34,14,11,6,0,0,0,3,4,5,15,4,0,0,0,4,4,0,15,0,18,8,7,5,1,35,2,30,0,0,30,2,0,0,0,0,0,0,0,0,0,0,0,0,0,0,0,0,0,0,0,0,0,0,0,0,0,0],"split_type":[0,0,0,0,0,0,0,0,0,0,0,0,0,0,0,0,0,0,0,0,0,0,0,0,0,0,0,0,0,0,0,0,0,0,0,0,0,0,0,0,0,0,0,0,0,0,0,0,0,0,0,0,0,0,0,0,0,0,0,0,0,0,0,0,0,0,0,0,0,0,0,0,0,0,0],"sum_hessian":[5.4825854E2,9.8760315E1,4.4949823E2,6.092382E0,9.266793E1,1.5784683E2,2.916514E2,2.6318245E0,3.4605572E0,6.7502556E0,8.591768E1,3.6794186E0,1.541674E2,2.6237698E2,2.92744E1,1.4260743E0,1.2057503E0,2.9491181E0,3.8011374E0,9.912419E0,7.600526E1,1.1991459E0,2.4802725E0,5.0500687E1,1.03666725E2,2.4236285E2,2.0014145E1,3.6592836E0,2.5615116E1,1.222526E0,1.7265923E0,1.2182322E0,2.5829053E0,8.716452E0,1.1959671E0,7.406209E1,1.943168E0,2.2567791E1,2.7932896E1,7.191114E0,9.647561E1,1.8130457E2,6.1058273E1,3.4583807E0,1.6555763E1,2.1901054E0,1.4691781E0,2.0003206E1,5.6119113E0,1.4113032E0,1.171602E0,1.6712102E0,7.045242E0,8.188085E0,6.587401E1,7.376721E0,1.5191071E1,2.412406E1,3.808836E0,5.964326E0,1.226788E0,1.7248444E1,7.9227165E1,1.4507623E1,1.6679695E2,2.6168535E1,3.488974E1,1.2330971E0,2.2252836E0,5.4155984E0,1.1140165E1,1.481127E1,5.1919355E0,2.2345853E0,3.3773258E0],"tree_param":{"num_deleted":"0","num_feature":"36","num_nodes":"75","size_leaf_vector":"1"}},{"base_weights":[-1.5658656E-2,-2.0316067E-1,9.514146E-2,-2.3323853E-1,9.2113906E-1,3.4336236E-1,-2.5420643E-2,-3.902474E-1,-3.9782617E-2,1.8334663E-1,-5.9894666E-2,3.8938648E-1,-8.3793014E-1,-1.0324991E0,2.7401522E-3,-3.0769596E-1,-1.2543608E0,-2.1678439E-1,6.083357E-1,6.1980945E-1,1.6267182E-1,-1.506353E-1,5.160015E-3,3.6810875E-2,-1.8342687E-1,-7.5764173E-1,3.9801084E-2,-3.394604E-1,1.6497518E-1,-2.6425652E-2,-1.851931E-1,4.099702E-1,-4.052152E-1,-1.9095263E-1,9.148279E-1,8.0712116E-1,-1.0756164E-2,-9.380751E-2,9.0666175E-1,-1.091663E0,8.004259E-2,8.674916E-4,7.2222006E-1,-2.92568E-2,-1.102456E-1,7.771257E-2,-1.2619889E-1,-9.506187E-2,-1.2510026E-2,-1.3375428E-1,1.2231737E-1,-3.6263704E-2,1.4909999E-1,7.895673E-2,1.9490291E-1,-3.6858454E-2,1.3329718E-1,4.9371246E-2,-1.16130605E-1,1.4671822E-1,-1.7102541E-2,3.864817E-2,-1.7638765E-1,3.9541434E-2,-8.850011E-3,-6.1838362E-2,1.3072768E-1],"categories":[],"categories_nodes":[],"categories_segments":[],"categories_sizes":[],"default_left":[0,0,0,0,0,0,0,0,0,0,0,0,0,0,0,0,0,0,0,0,0,0,0,0,0,0,0,0,0,0,0,0,0,0,0,0,0,0,0,0,0,0,0,0,0,0,0,0,0,0,0,0,0,0,0,0,0,0,0,0,0,0,0,0,0,0,0],"id":6,"left_children":[1,3,5,7,9,11,13,15,17,-1,-1,19,21,23,25,27,29,31,33,35,37,-1,-1,-1,-1,39,41,43,-1,-1,-1,45,47,49,51,53,55,57,59,61,-1,63,65,-1,-1,-1,-1,-1,-1,-1,-1,-1,-1,-1,-1,-1,-1,-1,-1,-1,-1,-1,-1,-1,-1,-1,-1],"loss_changes":[1.1380835E1,7.0947733E0,1.0316103E1,6.0273123E0,4.3551593E0,6.451865E0,6.603913E0,7.4396553E0,1.0484216E1,0E0,0E0,5.599983E0,1.3195145E0,3.5388036E0,6.4390993E0,5.5073977E0,1.3491783E0,8.624503E0,4.981362E0,6.3589764E0,1.0839905E1,0E0,0E0,0E0,0E0,5.5403943E0,5.786257E0,5.6444216E0,0E0,0E0,0E0,4.9818716E0,5.5155125E0,6.894689E0,4.2735844E0,4.829996E0,4.040454E0,1.6516474E1,3.4795208E0,3.6613083E0,0E0,4.340591E0,4.4497666E0,0E0,0E0,0E0,0E0,0E0,0E0,0E0,0E0,0E0,0E0,0E0,0E0,0E0,0E0,0E0,0E0,0E0,0E0,0E0,0E0,0E0,0E0,0E0,0E0],"parents":[2147483647,0,0,1,1,2,2,3,3,4,4,5,5,6,6,7,7,8,8,11,11,12,12,13,13,14,14,15,15,16,16,17,17,18,18,19,19,20,20,25,25,26,26,27,27,31,31,32,32,33,33,34,34,35,35,36,36,37,37,38,38,39,39,41,41,42,42],"right_children":[2,4,6,8,10,12,14,16,18,-1,-1,20,22,24,26,28,30,32,34,36,38,-1,-1,-1,-1,40,42,44,-1,-1,-1,46,48,50,52,54,56,58,60,62,-1,64,66,-1,-1,-1,-1,-1,-1,-1,-1,-1,-1,-1,-1,-1,-1,-1,-1,-1,-1,-1,-1,-1,-1,-1,-1],"split_conditions":[1.4289856E0,1.08E2,2.4283888E0,3.4133334E0,2.4788303E0,1.0142274E-1,2.8634465E-1,2.4444444E-1,8.307796E-1,1.8334663E-1,-5.9894666E-2,7.090945E0,5.563958E-1,2E0,1.5166667E0,2.2265497E1,-5.7599497E-1,5.21E0,1.67E0,5.12028E-1,2.1825397E-1,-1.506353E-1,5.160015E-3,3.6810875E-2,-1.8342687E-1,2.2275774E0,2.242033E0,7.03E0,1.6497518E-1,-2.6425652E-2,-1.851931E-1,1.03E2,8.115942E-2,1.600836E0,4.824089E-1,2.1E1,2.014575E1,9.212904E-1,5.484122E-1,4.2357442E-1,8.004259E-2,4.872398E-1,3.8627172E-1,-2.92568E-2,-1.102456E-1,7.771257E-2,-1.2619889E-1,-9.506187E-2,-1.2510026E-2,-1.3375428E-1,1.2231737E-1,-3.6263704E-2,1.4909999E-1,7.895673E-2,1.9490291E-1,-3.6858454E-2,1.3329718E-1,4.9371246E-2,-1.16130605E-1,1.4671822E-1,-1.7102541E-2,3.864817E-2,-1.7638765E-1,3.9541434E-2,-8.850011E-3,-6.1838362E-2,1.3072768E-1],"split_indices":[32,6,11,31,21,4,25,24,22,0,0,14,12,27,31,0,28,7,33,20,24,0,0,0,0,0,17,3,0,0,0,6,24,19,10,30,0,10,20,21,0,21,21,0,0,0,0,0,0,0,0,0,0,0,0,0,0,0,0,0,0,0,0,0,0,0,0],"split_type":[0,0,0,0,0,0,0,0,0,0,0,0,0,0,0,0,0,0,0,0,0,0,0,0,0,0,0,0,0,0,0,0,0,0,0,0,0,0,0,0,0,0,0,0,0,0,0,0,0,0,0,0,0,0,0,0,0,0,0,0,0,0,0,0,0,0,0],"sum_hessian":[5.458771E2,2.0244872E2,3.4342834E2,1.9794571E2,4.5029993E0,1.1166905E2,2.3175931E2,1.08704155E2,8.9241554E1,3.313445E0,1.1895542E0,1.0812672E2,3.5423334E0,5.3342147E0,2.264251E2,1.00462715E2,8.241434E0,7.062053E1,1.8621023E1,5.2764885E1,5.5361828E1,2.3630939E0,1.1792396E0,1.243616E0,4.0905986E0,9.619429E0,2.1680566E2,9.924604E1,1.2166748E0,1.4437003E0,6.797734E0,1.6052233E1,5.45683E1,5.2657275E0,1.3355295E1,4.046471E1,1.2300176E1,4.1819202E1,1.3542627E1,7.9014244E0,1.7180045E0,2.0605124E2,1.0754433E1,8.213648E1,1.7109562E1,1.4634283E1,1.4179503E0,2.5926584E1,2.8641716E1,3.0786967E0,2.1870308E0,2.1306973E0,1.1224598E1,3.2816536E1,7.6481733E0,1.0311947E1,1.9882283E0,2.6588726E1,1.5230474E1,1.1097511E1,2.4451165E0,1.2406285E0,6.660796E0,3.7532265E1,1.6851897E2,1.9211369E0,8.833296E0],"tree_param":{"num_deleted":"0","num_feature":"36","num_nodes":"67","size_leaf_vector":"1"}},{"base_weights":[-1.3061375E-2,-1.741653E-1,8.274866E-2,-1.073767E0,-1.2891705E-1,3.605788E-1,-1.6909916E-2,-1.730797E-1,4.983802E-2,3.1331595E-2,-3.0098313E-1,4.5782495E-1,-7.5282454E-1,-7.0677364E-1,2.7762247E-2,-3.9945245E-1,1.8966055E-1,-1.7815386E-1,-9.233655E-1,1.0591507E0,3.2463828E-1,3.3808976E-2,-1.085044E0,7.998708E-2,-9.1918963E-1,6.148488E-2,-7.830973E-1,-9.566744E-1,-7.421369E-2,-4.0089202E-1,3.4109464E-1,2.458844E-1,-4.0257618E-1,5.3002596E-2,-1.0657356E0,-1.4005106E-2,1.1716324E0,5.157342E-2,6.5296614E-1,-1.762072E-1,1.1793819E-3,9.393028E-2,-1.1792665E0,-1.247542E-1,2.1648075E-1,-1.1665571E0,1.486812E-1,7.4257012E-3,-1.7550409E-1,-5.745193E-2,8.7495245E-2,1.2886587E-1,-8.60387E-2,-1.6139805E-2,7.567958E-2,-9.824676E-2,5.9940215E-2,-7.648248E-2,2.3644537E-2,-1.6927417E-1,-2.3065267E-2,9.74919E-4,1.710639E-1,2.5966074E-2,-1.12860024E-1,-3.9588083E-2,1.0806283E-1,1.2953071E-1,-9.7344436E-2,-2.5739486E-3,-1.9132599E-1,-2.58829E-2,1.0609146E-1,9.212494E-2,1.378406E-2,-1.8125005E-1,-4.052767E-3,1.3119754E-1,-9.0233825E-2],"categories":[],"categories_nodes":[],"categories_segments":[],"categories_sizes":[],"default_left":[0,0,0,0,0,0,0,0,0,0,0,0,0,0,0,0,0,0,0,0,0,0,0,0,0,0,0,0,0,0,0,0,0,0,0,0,0,0,0,0,0,0,0,0,0,0,0,0,0,0,0,0,0,0,0,0,0,0,0,0,0,0,0,0,0,0,0,0,0,0,0,0,0,0,0,0,0,0,0],"id":7,"left_children":[1,3,5,7,9,11,13,-1,-1,15,17,19,21,23,25,27,29,31,33,35,37,-1,39,-1,41,43,45,47,49,51,53,55,57,-1,59,-1,61,63,65,-1,-1,67,69,71,73,75,77,-1,-1,-1,-1,-1,-1,-1,-1,-1,-1,-1,-1,-1,-1,-1,-1,-1,-1,-1,-1,-1,-1,-1,-1,-1,-1,-1,-1,-1,-1,-1,-1],"loss_changes":[8.416712E0,8.138035E0,9.476212E0,4.091255E0,5.37866E0,1.0126313E1,7.806828E0,0E0,0E0,7.014361E0,7.0210857E0,6.3601017E0,2.850297E0,4.88891E0,6.563774E0,4.942353E0,6.8500376E0,7.6874375E0,3.3236732E0,2.0600548E0,6.239501E0,0E0,1.7602754E0,0E0,3.7133408E0,6.6574154E0,3.598846E0,4.093401E0,5.3824396E0,6.3664417E0,6.8130493E0,6.4101763E0,5.786621E0,0E0,2.703249E0,0E0,2.2379951E0,5.512822E0,5.631179E0,0E0,0E0,3.5666375E0,3.664483E0,7.47502E0,6.755934E0,1.7293282E0,3.3633354E0,0E0,0E0,0E0,0E0,0E0,0E0,0E0,0E0,0E0,0E0,0E0,0E0,0E0,0E0,0E0,0E0,0E0,0E0,0E0,0E0,0E0,0E0,0E0,0E0,0E0,0E0,0E0,0E0,0E0,0E0,0E0,0E0],"parents":[2147483647,0,0,1,1,2,2,3,3,4,4,5,5,6,6,9,9,10,10,11,11,12,12,13,13,14,14,15,15,16,16,17,17,18,18,19,19,20,20,22,22,24,24,25,25,26,26,27,27,28,28,29,29,30,30,31,31,32,32,34,34,36,36,37,37,38,38,41,41,42,42,43,43,44,44,45,45,46,46],"right_children":[2,4,6,8,10,12,14,-1,-1,16,18,20,22,24,26,28,30,32,34,36,38,-1,40,-1,42,44,46,48,50,52,54,56,58,-1,60,-1,62,64,66,-1,-1,68,70,72,74,76,78,-1,-1,-1,-1,-1,-1,-1,-1,-1,-1,-1,-1,-1,-1,-1,-1,-1,-1,-1,-1,-1,-1,-1,-1,-1,-1,-1,-1,-1,-1,-1,-1],"split_conditions":[1.4289856E0,6.800482E-2,2.1729171E0,6.236559E-2,6.28E0,8.56E0,9.176E0,-1.730797E-1,4.983802E-2,2.822593E-1,5.44847E-1,1.7831498E-1,1.5828058E0,7.719132E0,1.0164324E1,9.151852E-1,7.615773E-1,6.7786684E0,1E0,1.07168E-3,1.9424727E0,3.3808976E-2,1.3647347E1,7.998708E-2,2.9506102E0,2.0408163E-2,9.0909094E-1,7.3876233E0,8.569357E0,3.587135E-1,6.2042303E0,5.7299882E-2,1.7624824E0,5.3002596E-2,6.2607326E-2,-1.4005106E-2,1.944865E0,1.1621739E0,-1.8163908E-1,-1.762072E-1,1.1793819E-3,2.6933334E0,7.5695834E0,6.778434E0,4.50781E-3,3.9706175E0,6.9489064E0,7.4257012E-3,-1.7550409E-1,-5.745193E-2,8.7495245E-2,1.2886587E-1,-8.60387E-2,-1.6139805E-2,7.567958E-2,-9.824676E-2,5.9940215E-2,-7.648248E-2,2.3644537E-2,-1.6927417E-1,-2.3065267E-2,9.74919E-4,1.710639E-1,2.5966074E-2,-1.12860024E-1,-3.9588083E-2,1.0806283E-1,1.2953071E-1,-9.7344436E-2,-2.5739486E-3,-1.9132599E-1,-2.58829E-2,1.0609146E-1,9.212494E-2,1.378406E-2,-1.8125005E-1,-4.052767E-3,1.3119754E-1,-9.0233825E-2],"split_indices":[32,20,11,24,3,3,9,0,0,10,25,1,15,16,2,35,32,14,27,5,32,0,2,0,13,24,23,14,14,21,14,22,19,0,5,0,13,35,28,0,0,31,9,12,4,15,16,0,0,0,0,0,0,0,0,0,0,0,0,0,0,0,0,0,0,0,0,0,0,0,0,0,0,0,0,0,0,0,0],"split_type":[0,0,0,0,0,0,0,0,0,0,0,0,0,0,0,0,0,0,0,0,0,0,0,0,0,0,0,0,0,0,0,0,0,0,0,0,0,0,0,0,0,0,0,0,0,0,0,0,0,0,0,0,0,0,0,0,0,0,0,0,0,0,0,0,0,0,0,0,0,0,0,0,0,0,0,0,0,0,0],"sum_hessian":[5.4335364E2,2.02326E2,3.4102762E2,8.600704E0,1.9372531E2,8.934149E1,2.5168613E2,7.388661E0,1.2120432E0,1.00730675E2,9.299463E1,8.270659E1,6.634898E0,1.4405372E1,2.3728076E2,2.6662897E1,7.406778E1,7.874106E1,1.4253571E1,1.3736255E1,6.897034E1,1.6929266E0,4.9419713E0,1.7328056E0,1.2672566E1,2.2869385E2,8.586917E0,9.111309E0,1.7551588E1,1.4780492E1,5.9287285E1,2.7217983E1,5.1523075E1,1.1978334E0,1.30557375E1,1.2116127E0,1.2524642E1,3.828577E1,3.0684566E1,3.7764423E0,1.165529E0,2.71913E0,9.953436E0,1.0396603E2,1.2472781E2,5.9048815E0,2.6820354E0,2.7782211E0,6.3330874E0,1.2038222E1,5.513366E0,1.8870186E0,1.2893474E1,2.0367159E1,3.8920128E1,4.36285E0,2.2855133E1,3.9123062E1,1.2400014E1,9.95885E0,3.0968876E0,1.483186E0,1.1041456E1,3.3650127E1,4.635645E0,4.6850696E0,2.5999496E1,1.2252153E0,1.4939148E0,2.2100651E0,7.743371E0,9.709742E1,6.868606E0,2.1918314E1,1.028095E2,4.735304E0,1.1695777E0,1.2297034E0,1.4523321E0],"tree_param":{"num_deleted":"0","num_feature":"36","num_nodes":"79","size_leaf_vector":"1"}},{"base_weights":[-1.2213581E-2,-1.8289861E-1,7.674167E-2,-4.9706224E-1,6.0494E-3,-1.7382458E-1,1.7175305E-1,1.0108694E-1,-6.838304E-1,-7.5183526E-2,7.5093067E-1,-2.2354887E-1,1.8250135E-1,2.8103095E-1,-1.0143023E-1,-4.4154102E-1,8.2376456E-1,-9.469809E-1,-2.3895717E-1,-2.8404602E-1,2.1195656E-1,9.9654657E-1,-5.5736467E-2,5.2417785E-2,-4.2992562E-1,1.8549986E-1,2.5201553E-1,-2.2181305E-1,4.699837E-1,1.5638475E-1,-8.317417E-1,1.2893255E0,-1.0129828E-1,-1.1601469E-1,-1.0592996E0,9.7303796E-1,-4.4422823E-1,-4.1322085E-1,4.8330498E-1,5.4887928E-2,9.461902E-1,-3.9135296E-2,1.415623E0,2.7841195E-1,-5.7184553E-1,-6.431814E-1,3.9068154E-1,1.8070227E-1,6.9845635E-1,-5.4316443E-1,8.781183E-2,-3.1056342E-1,9.950734E-1,5.1350657E-2,-1.3790742E-1,2.176727E-1,-4.3700943E-3,5.363828E-2,-6.886565E-2,6.5815605E-2,-1.3123472E-1,-8.0585025E-2,-1.7247738E-1,1.6103102E-1,3.372519E-2,4.8403E-2,-9.3848124E-2,2.8200068E-3,-9.175327E-2,1.2519254E-1,-8.4538095E-2,-8.569752E-3,1.7449737E-1,1.654266E-1,-1.9825788E-2,-1.1199287E-1,8.168091E-2,2.201897E-1,4.3822493E-2,1.2363193E-1,2.437535E-3,-1.1634045E-1,5.465285E-2,-4.841353E-2,-1.5745012E-1,1.4178827E-1,-8.890411E-2,8.922208E-3,6.690996E-2,1.3682066E-1,-1.0578046E-2,-1.2810268E-1,-7.0628696E-3,-5.4958746E-2,7.7982605E-2,1.02825515E-1,-9.5594995E-2,1.9372341E-1,-1.9443858E-2],"categories":[],"categories_nodes":[],"categories_segments":[],"categories_sizes":[],"default_left":[0,0,0,0,0,0,0,0,0,0,0,0,0,0,0,0,0,0,0,0,0,0,0,0,0,0,0,0,0,0,0,0,0,0,0,0,0,0,0,0,0,0,0,0,0,0,0,0,0,0,0,0,0,0,0,0,0,0,0,0,0,0,0,0,0,0,0,0,0,0,0,0,0,0,0,0,0,0,0,0,0,0,0,0,0,0,0,0,0,0,0,0,0,0,0,0,0,0,0],"id":8,"left_children":[1,3,5,7,9,11,13,15,17,19,21,23,-1,25,27,29,31,33,35,37,39,41,-1,43,45,-1,47,49,51,-1,53,55,57,59,61,63,65,67,69,71,73,75,77,79,81,83,85,87,89,91,93,95,97,-1,-1,-1,-1,-1,-1,-1,-1,-1,-1,-1,-1,-1,-1,-1,-1,-1,-1,-1,-1,-1,-1,-1,-1,-1,-1,-1,-1,-1,-1,-1,-1,-1,-1,-1,-1,-1,-1,-1,-1,-1,-1,-1,-1,-1,-1],"loss_changes":[8.347169E0,1.1182474E1,8.636024E0,7.9720345E0,7.2322E0,8.14169E0,7.8683534E0,7.306225E0,6.099827E0,6.5275393E0,3.8305273E0,5.586531E0,0E0,5.877677E0,5.316361E0,7.8999715E0,3.5507107E0,3.014597E0,5.7616835E0,6.430105E0,5.2509713E0,4.4073315E0,0E0,6.182062E0,1.0051804E1,0E0,5.7450438E0,6.3424063E0,5.844469E0,0E0,3.013863E0,2.7710915E0,1.0057756E0,3.353654E0,2.6313286E0,3.2386613E-1,4.5628023E0,6.910405E0,5.78546E0,6.1339355E0,3.0637245E0,2.65486E0,1.5658674E0,5.565467E0,4.1045923E0,6.438383E0,9.87882E0,5.9609447E0,6.977495E0,6.67192E0,8.882349E0,3.4705088E0,4.916378E0,0E0,0E0,0E0,0E0,0E0,0E0,0E0,0E0,0E0,0E0,0E0,0E0,0E0,0E0,0E0,0E0,0E0,0E0,0E0,0E0,0E0,0E0,0E0,0E0,0E0,0E0,0E0,0E0,0E0,0E0,0E0,0E0,0E0,0E0,0E0,0E0,0E0,0E0,0E0,0E0,0E0,0E0,0E0,0E0,0E0,0E0],"parents":[2147483647,0,0,1,1,2,2,3,3,4,4,5,5,6,6,7,7,8,8,9,9,10,10,11,11,13,13,14,14,15,15,16,16,17,17,18,18,19,19,20,20,21,21,23,23,24,24,26,26,27,27,28,28,30,30,31,31,32,32,33,33,34,34,35,35,36,36,37,37,38,38,39,39,40,40,41,41,42,42,43,43,44,44,45,45,46,46,47,47,48,48,49,49,50,50,51,51,52,52],"right_children":[2,4,6,8,10,12,14,16,18,20,22,24,-1,26,28,30,32,34,36,38,40,42,-1,44,46,-1,48,50,52,-1,54,56,58,60,62,64,66,68,70,72,74,76,78,80,82,84,86,88,90,92,94,96,98,-1,-1,-1,-1,-1,-1,-1,-1,-1,-1,-1,-1,-1,-1,-1,-1,-1,-1,-1,-1,-1,-1,-1,-1,-1,-1,-1,-1,-1,-1,-1,-1,-1,-1,-1,-1,-1,-1,-1,-1,-1,-1,-1,-1,-1,-1],"split_conditions":[2.8571429E-2,3E0,1.65E0,2.1221103E-1,1.7259786E0,1.1E0,7.11E0,3.0337961E-2,1.5509677E0,4.09E0,4.336254E-2,7.272137E0,1.8250135E-1,2.3109238E-1,1.1137544E0,1.7285196E-1,1.0118408E1,2.3931034E-1,7.8662413E-1,3.91E0,1.0502975E1,2.3660284E-1,-5.5736467E-2,5.1367905E-2,2.3076923E-1,1.8549986E-1,5.897671E-1,3.8284738E-2,3.4133334E0,1.5638475E-1,3.3E1,3.62E0,1.9350711E0,2.9113945E-2,1.0647066E0,1.0025517E-1,-3.038805E-1,2.663023E-1,3.47E0,6.3288803E0,2.1015282E1,6.400803E-2,8E0,1.2079184E-1,9.191289E-2,1.5485163E-2,2.510571E-1,1.8572584E1,1.9307202E0,7.926469E0,6.799764E0,1.1938739E0,1.4724809E0,5.1350657E-2,-1.3790742E-1,2.176727E-1,-4.3700943E-3,5.363828E-2,-6.886565E-2,6.5815605E-2,-1.3123472E-1,-8.0585025E-2,-1.7247738E-1,1.6103102E-1,3.372519E-2,4.8403E-2,-9.3848124E-2,2.8200068E-3,-9.175327E-2,1.2519254E-1,-8.4538095E-2,-8.569752E-3,1.7449737E-1,1.654266E-1,-1.9825788E-2,-1.1199287E-1,8.168091E-2,2.201897E-1,4.3822493E-2,1.2363193E-1,2.437535E-3,-1.1634045E-1,5.465285E-2,-4.841353E-2,-1.5745012E-1,1.4178827E-1,-8.890411E-2,8.922208E-3,6.690996E-2,1.3682066E-1,-1.0578046E-2,-1.2810268E-1,-7.0628696E-3,-5.4958746E-2,7.7982605E-2,1.02825515E-1,-9.5594995E-2,1.9372341E-1,-1.9443858E-2],"split_indices":[24,27,33,12,17,35,3,4,35,7,4,14,0,21,22,1,9,35,12,31,32,0,0,5,24,0,20,5,31,0,6,31,13,5,32,1,17,0,7,15,13,20,27,34,5,5,24,9,21,14,0,22,32,0,0,0,0,0,0,0,0,0,0,0,0,0,0,0,0,0,0,0,0,0,0,0,0,0,0,0,0,0,0,0,0,0,0,0,0,0,0,0,0,0,0,0,0,0,0],"split_type":[0,0,0,0,0,0,0,0,0,0,0,0,0,0,0,0,0,0,0,0,0,0,0,0,0,0,0,0,0,0,0,0,0,0,0,0,0,0,0,0,0,0,0,0,0,0,0,0,0,0,0,0,0,0,0,0,0,0,0,0,0,0,0,0,0,0,0,0,0,0,0,0,0,0,0,0,0,0,0,0,0,0,0,0,0,0,0,0,0,0,0,0,0,0,0,0,0,0,0],"sum_hessian":[5.478343E2,1.8733147E2,3.6050284E2,6.974157E1,1.175899E2,9.888677E1,2.6161606E2,1.6703905E1,5.3037663E1,1.0683778E2,1.0752113E1,9.669434E1,2.1924264E0,1.8684586E2,7.477021E1,9.762603E0,6.941303E0,3.261604E1,2.0421623E1,6.1855534E1,4.498225E1,9.026797E0,1.7253157E0,4.169109E1,5.5003254E1,3.4305625E0,1.8341528E2,6.2264446E1,1.2505766E1,1.474394E0,8.288209E0,4.3555126E0,2.5857904E0,4.1257157E0,2.8490322E1,2.416061E0,1.8005562E1,5.3338158E1,8.517377E0,3.794067E1,7.041584E0,2.861547E0,6.1652503E0,3.101657E1,1.0674521E1,4.3829304E1,1.1173953E1,1.5936371E2,2.405157E1,3.0183516E1,3.208093E1,5.193768E0,7.3119974E0,1.18428E0,7.1039286E0,3.172309E0,1.1832036E0,1.1920112E0,1.3937792E0,2.6869478E0,1.438768E0,1.19853325E1,1.650499E1,1.2282306E0,1.1878303E0,4.474038E0,1.3531525E1,2.1788738E1,3.1549417E1,6.0936866E0,2.4236906E0,3.5551464E1,2.389204E0,5.3131127E0,1.7284712E0,1.1518844E0,1.7096624E0,4.45615E0,1.7091001E0,7.9081225E0,2.3108446E1,8.132261E0,2.5422602E0,3.0762596E1,1.3066707E1,6.760162E0,4.4137907E0,1.2015423E2,3.9209484E1,1.6318962E1,7.732608E0,1.5334077E1,1.4849439E1,1.6147858E1,1.5933072E1,1.2041328E0,3.9896352E0,4.8991413E0,2.4128563E0],"tree_param":{"num_deleted":"0","num_feature":"36","num_nodes":"99","size_leaf_vector":"1"}},{"base_weights":[5.5777207E-3,-1.3479167E-1,1.4180498E-1,7.7910855E-2,-2.715937E-1,-3.5077003E-1,2.0127194E-1,-8.141827E-1,1.3353647E-1,8.2925886E-2,-3.887829E-1,1.1491864E-1,-7.3555064E-1,-5.6563377E-2,3.6188534E-1,-1.5048686E-1,2.7023876E-2,-2.818873E-2,4.5108342E-1,1.0945743E0,-7.52512E-2,-5.0150174E-1,1.4585204E-1,-1.7667125E-1,1.6536205E-1,3.899512E-1,-1.0977447E0,-9.498473E-1,4.230942E-2,7.88124E-1,2.3716176E-1,-1.972983E-1,4.0782264E-1,6.151521E-1,-3.767661E-1,1.8832603E-1,-1.4872882E-3,-5.233458E-1,4.2936018E-1,1.8272221E-1,-5.790909E-1,-2.89549E-1,7.00392E-1,-4.1212597E-1,1.3719167E-1,8.5314244E-1,-6.644132E-2,-1.3637751E0,-3.8440105E-1,-1.1807492E0,1.2485301E-2,-3.0950886E-1,3.1633142E-1,-3.511955E-2,1.0125917E0,-5.058825E-1,3.5528007E-1,6.637983E-2,-6.0177326E-2,8.1947476E-2,-9.140513E-2,1.4009503E-1,2.7172033E-2,-1.1328828E-1,9.039377E-2,2.1736188E-2,-1.1603157E-1,9.979535E-2,-7.112832E-2,-5.338911E-2,1.3258241E-1,9.8505095E-2,-7.985063E-2,-6.0709644E-2,1.0001498E-1,1.3161433E-1,-5.458925E-2,2.6159216E-2,-1.1270821E-1,1.4271906E-1,2.9246526E-2,-5.2104656E-2,-1.8896855E-1,-1.2529811E-1,9.1773614E-2,-4.2780034E-2,-1.765248E-1,7.752115E-2,-6.316444E-2,1.9343822E-1,2.8266171E-2,1.6444111E-1,-1.0687293E-1,-9.977699E-2,1.473646E-1,-1.3143472E-1,9.159557E-3,1.2662357E-2,7.542436E-2],"categories":[],"categories_nodes":[],"categories_segments":[],"categories_sizes":[],"default_left":[0,0,0,0,0,0,0,0,0,0,0,0,0,0,0,0,0,0,0,0,0,0,0,0,0,0,0,0,0,0,0,0,0,0,0,0,0,0,0,0,0,0,0,0,0,0,0,0,0,0,0,0,0,0,0,0,0,0,0,0,0,0,0,0,0,0,0,0,0,0,0,0,0,0,0,0,0,0,0,0,0,0,0,0,0,0,0,0,0,0,0,0,0,0,0,0,0,0,0],"id":9,"left_children":[1,3,5,7,9,11,13,15,17,19,21,23,25,27,29,-1,-1,31,33,35,37,39,41,43,-1,45,47,49,51,53,55,57,59,61,63,-1,-1,65,67,69,71,73,75,77,-1,79,-1,81,83,85,-1,87,89,91,93,95,97,-1,-1,-1,-1,-1,-1,-1,-1,-1,-1,-1,-1,-1,-1,-1,-1,-1,-1,-1,-1,-1,-1,-1,-1,-1,-1,-1,-1,-1,-1,-1,-1,-1,-1,-1,-1,-1,-1,-1,-1,-1,-1],"loss_changes":[1.0114006E1,7.60175E0,7.9325113E0,5.207426E0,6.6284695E0,5.3306084E0,9.964335E0,2.3975625E0,5.023797E0,6.526079E0,7.2747173E0,4.979546E0,7.0182247E0,8.2568035E0,7.6858864E0,0E0,0E0,4.9167767E0,4.71193E0,2.164153E0,8.310322E0,5.3572598E0,5.4138575E0,3.9542542E0,0E0,2.3848863E0,1.8464813E0,2.3622456E0,8.26515E0,6.1509533E0,1.0360477E1,9.223928E0,5.036806E0,5.0069666E0,3.818334E0,0E0,0E0,5.0779366E0,6.1384234E0,5.7887793E0,4.565159E0,2.7540777E0,3.8308296E0,3.2113974E0,0E0,2.830329E-1,0E0,1.5852547E-1,3.6947033E0,7.069311E-1,0E0,6.272941E0,5.258761E0,9.261771E0,6.413845E0,4.8120294E0,5.768156E0,0E0,0E0,0E0,0E0,0E0,0E0,0E0,0E0,0E0,0E0,0E0,0E0,0E0,0E0,0E0,0E0,0E0,0E0,0E0,0E0,0E0,0E0,0E0,0E0,0E0,0E0,0E0,0E0,0E0,0E0,0E0,0E0,0E0,0E0,0E0,0E0,0E0,0E0,0E0,0E0,0E0,0E0],"parents":[2147483647,0,0,1,1,2,2,3,3,4,4,5,5,6,6,7,7,8,8,9,9,10,10,11,11,12,12,13,13,14,14,17,17,18,18,19,19,20,20,21,21,22,22,23,23,25,25,26,26,27,27,28,28,29,29,30,30,31,31,32,32,33,33,34,34,37,37,38,38,39,39,40,40,41,41,42,42,43,43,45,45,47,47,48,48,49,49,51,51,52,52,53,53,54,54,55,55,56,56],"right_children":[2,4,6,8,10,12,14,16,18,20,22,24,26,28,30,-1,-1,32,34,36,38,40,42,44,-1,46,48,50,52,54,56,58,60,62,64,-1,-1,66,68,70,72,74,76,78,-1,80,-1,82,84,86,-1,88,90,92,94,96,98,-1,-1,-1,-1,-1,-1,-1,-1,-1,-1,-1,-1,-1,-1,-1,-1,-1,-1,-1,-1,-1,-1,-1,-1,-1,-1,-1,-1,-1,-1,-1,-1,-1,-1,-1,-1,-1,-1,-1,-1,-1,-1],"split_conditions":[4E0,2E0,3.8E-1,2.85E0,2.8533332E0,1.6442904E1,1.7013524E0,3.861103E-1,3.82E0,7.8E-1,2.254902E-1,4.7E0,-4.734285E-1,-7.7112657E-1,2.3273504E0,-1.5048686E-1,2.7023876E-2,2.578266E0,2.153304E0,1.8162618E0,5.32748E-1,1.2079184E-1,1.0476E0,9.8E1,1.6536205E-1,5.88E0,2.9711242E0,6.56E0,3.163489E-1,4.0130433E-1,1.2558627E1,4.8356467E-1,1.033E1,2.010199E0,6.2315483E0,1.8832603E-1,-1.4872882E-3,7.375088E-1,1.9E1,9.900988E-2,5.353504E-1,1.2332993E1,2.5339368E-1,2.891822E-1,1.3719167E-1,1.1E-1,-6.644132E-2,2.6244516E-2,8E0,-2.7387777E-1,1.2485301E-2,3.4E1,-4.791087E-1,1.6805555E-1,1.146185E-1,4.0920043E0,5.6E1,6.637983E-2,-6.0177326E-2,8.1947476E-2,-9.140513E-2,1.4009503E-1,2.7172033E-2,-1.1328828E-1,9.039377E-2,2.1736188E-2,-1.1603157E-1,9.979535E-2,-7.112832E-2,-5.338911E-2,1.3258241E-1,9.8505095E-2,-7.985063E-2,-6.0709644E-2,1.0001498E-1,1.3161433E-1,-5.458925E-2,2.6159216E-2,-1.1270821E-1,1.4271906E-1,2.9246526E-2,-5.2104656E-2,-1.8896855E-1,-1.2529811E-1,9.1773614E-2,-4.2780034E-2,-1.765248E-1,7.752115E-2,-6.316444E-2,1.9343822E-1,2.8266171E-2,1.6444111E-1,-1.0687293E-1,-9.977699E-2,1.473646E-1,-1.3143472E-1,9.159557E-3,1.2662357E-2,7.542436E-2],"split_indices":[27,27,8,8,31,9,32,20,31,32,24,3,17,28,11,0,0,18,19,19,22,34,35,6,0,3,2,7,12,35,9,18,7,32,11,0,0,21,30,34,32,14,24,17,0,35,0,1,27,17,0,6,28,35,0,32,6,0,0,0,0,0,0,0,0,0,0,0,0,0,0,0,0,0,0,0,0,0,0,0,0,0,0,0,0,0,0,0,0,0,0,0,0,0,0,0,0,0,0],"split_type":[0,0,0,0,0,0,0,0,0,0,0,0,0,0,0,0,0,0,0,0,0,0,0,0,0,0,0,0,0,0,0,0,0,0,0,0,0,0,0,0,0,0,0,0,0,0,0,0,0,0,0,0,0,0,0,0,0,0,0,0,0,0,0,0,0,0,0,0,0,0,0,0,0,0,0,0,0,0,0,0,0,0,0,0,0,0,0,0,0,0,0,0,0,0,0,0,0,0,0],"sum_hessian":[5.269165E2,2.5951807E2,2.6739847E2,1.0174827E2,1.5776979E2,2.8276962E1,2.3912149E2,5.1716304E0,9.657664E1,3.926826E1,1.1850153E2,1.3110748E1,1.5166214E1,9.2030785E1,1.470907E2,3.7758615E0,1.3957689E0,6.459164E1,3.1984997E1,4.5091696E0,3.475909E1,9.791894E1,2.0582598E1,1.1145684E1,1.9650643E0,3.6737046E0,1.149251E1,8.313573E0,8.371722E1,3.209345E1,1.1499725E2,4.693508E1,1.7656555E1,2.6908934E1,5.076064E0,3.185618E0,1.3235517E0,1.8390877E1,1.6368214E1,9.834847E0,8.808409E1,1.1797536E1,8.785062E0,9.91424E0,1.2314436E0,2.4605658E0,1.2131388E0,7.7066336E0,3.7858765E0,6.704254E0,1.6093185E0,3.659859E1,4.7118626E1,7.0566087E0,2.5036839E1,1.5322912E1,9.967435E1,1.2542708E1,3.4392376E1,1.5076674E1,2.5798812E0,1.1830522E1,1.5078412E1,3.6031013E0,1.4729626E0,6.587028E0,1.1803849E1,1.2321891E1,4.046323E0,6.0518007E0,3.783047E0,1.6875181E0,8.6396576E1,1.0586386E1,1.2111499E0,6.9519815E0,1.8330806E0,4.454347E0,5.459893E0,1.2364955E0,1.2240703E0,1.110935E0,6.5956984E0,2.5491476E0,1.2367289E0,1.6364167E0,5.067837E0,5.5645556E0,3.1034035E1,2.5878413E0,4.4530785E1,2.431751E0,4.624858E0,1.2376565E0,2.3799181E1,7.772381E0,7.5505314E0,4.70182E1,5.2656147E1],"tree_param":{"num_deleted":"0","num_feature":"36","num_nodes":"99","size_leaf_vector":"1"}},{"base_weights":[6.077944E-5,-1.27555E-1,1.03472285E-1,-3.5245022E-1,-3.4479175E-2,-2.9811206E-1,1.9028164E-1,5.2577764E-1,-4.4999987E-1,-1.1643137E-1,5.0740457E-1,1.297731E-1,-5.5108273E-1,-1.9232348E-1,2.7719754E-1,1.6684243E-3,1.7365146E-1,7.9643406E-2,-6.432098E-1,-4.23314E-1,7.359605E-2,9.3827105E-1,-3.65381E-1,7.4165946E-1,-4.564404E-1,-6.882307E-1,7.5887865E-1,1.7864504E-1,-9.337944E-1,3.5071996E-1,-1.41143E-1,-1.2842235E-1,8.073313E-1,-1.4564443E-1,3.0718386E-1,-2.925531E-1,-9.2212385E-1,4.262237E-1,-5.100071E-1,7.1943647E-1,-2.8302984E-2,2.520416E-1,1.38046E0,2.5872427E-1,-1.0296172E0,-3.7749533E-2,1.0334098E0,6.989903E-2,-1.5770473E-1,-8.6569625E-1,2.896882E-1,1.5768763E-1,-1.2045008E-2,-3.9602125E-1,5.103531E-1,6.322803E-2,-1.0827075E0,-3.9252624E-1,4.0818113E-1,2.2619505E-1,-8.333286E-1,-3.5940288E-3,1.5550958E-1,-6.281455E-2,8.731625E-2,6.932308E-2,-8.349854E-2,1.7696159E-2,-1.3301578E-1,1.4200285E-1,-4.447137E-2,9.886059E-2,-7.558753E-2,-1.761471E-2,1.3582984E-1,7.015994E-2,-2.09168E-2,-4.5156732E-2,1.6152708E-1,3.0466596E-2,2.1443705E-1,8.61179E-2,-7.315777E-2,-3.175923E-2,-1.5731564E-1,-4.6087325E-2,1.6878533E-1,-7.654474E-2,1.2301131E-1,-4.2529676E-2,-1.5377323E-1,1.3317852E-1,-2.9190024E-2,9.4859146E-2,-8.3768085E-2,1.02238216E-1,-6.0570184E-2,-2.7251402E-2,-1.6971557E-1,-1.1428238E-1,4.38794E-2,1.5556024E-2,6.636206E-2,9.092343E-2,-3.662255E-2,6.1939158E-2,-1.5851977E-1],"categories":[],"categories_nodes":[],"categories_segments":[],"categories_sizes":[],"default_left":[0,0,0,0,0,0,0,0,0,0,0,0,0,0,0,0,0,0,0,0,0,0,0,0,0,0,0,0,0,0,0,0,0,0,0,0,0,0,0,0,0,0,0,0,0,0,0,0,0,0,0,0,0,0,0,0,0,0,0,0,0,0,0,0,0,0,0,0,0,0,0,0,0,0,0,0,0,0,0,0,0,0,0,0,0,0,0,0,0,0,0,0,0,0,0,0,0,0,0,0,0,0,0,0,0,0,0],"id":10,"left_children":[1,3,5,7,9,11,13,15,17,19,21,23,25,27,29,31,-1,33,35,37,39,41,43,45,47,49,51,53,55,57,59,-1,61,-1,63,65,67,69,71,73,75,77,79,81,83,-1,85,87,-1,89,91,-1,-1,93,95,-1,97,99,101,103,105,-1,-1,-1,-1,-1,-1,-1,-1,-1,-1,-1,-1,-1,-1,-1,-1,-1,-1,-1,-1,-1,-1,-1,-1,-1,-1,-1,-1,-1,-1,-1,-1,-1,-1,-1,-1,-1,-1,-1,-1,-1,-1,-1,-1,-1,-1],"loss_changes":[7.1325283E0,5.0518427E0,1.0464411E1,6.294094E0,7.7069373E0,5.85756E0,8.236943E0,3.1884894E0,6.6185904E0,8.802221E0,8.920741E0,7.752884E0,6.591902E0,1.2859797E1,6.2300596E0,5.2319427E0,0E0,5.265304E0,4.3400135E0,4.4644175E0,6.1894155E0,4.3711004E0,3.6900592E0,3.4586754E0,4.5275917E0,5.6492596E0,1.5297129E0,6.225148E0,3.8130589E0,7.471607E0,8.00714E0,0E0,1.2039027E0,0E0,4.9058466E0,6.7777257E0,2.8655643E0,3.377346E0,5.1845703E0,3.6922235E0,6.2419233E0,4.766052E0,2.4428482E0,2.0447807E0,2.9633617E-1,0E0,3.5303516E0,4.893901E0,0E0,4.138115E0,2.313606E0,0E0,0E0,3.8470402E0,5.8626885E0,0E0,2.5070038E0,4.8297048E0,4.6195297E0,5.2025504E0,6.0566416E0,0E0,0E0,0E0,0E0,0E0,0E0,0E0,0E0,0E0,0E0,0E0,0E0,0E0,0E0,0E0,0E0,0E0,0E0,0E0,0E0,0E0,0E0,0E0,0E0,0E0,0E0,0E0,0E0,0E0,0E0,0E0,0E0,0E0,0E0,0E0,0E0,0E0,0E0,0E0,0E0,0E0,0E0,0E0,0E0,0E0,0E0],"parents":[2147483647,0,0,1,1,2,2,3,3,4,4,5,5,6,6,7,7,8,8,9,9,10,10,11,11,12,12,13,13,14,14,15,15,17,17,18,18,19,19,20,20,21,21,22,22,23,23,24,24,25,25,26,26,27,27,28,28,29,29,30,30,32,32,34,34,35,35,36,36,37,37,38,38,39,39,40,40,41,41,42,42,43,43,44,44,46,46,47,47,49,49,50,50,53,53,54,54,56,56,57,57,58,58,59,59,60,60],"right_children":[2,4,6,8,10,12,14,16,18,20,22,24,26,28,30,32,-1,34,36,38,40,42,44,46,48,50,52,54,56,58,60,-1,62,-1,64,66,68,70,72,74,76,78,80,82,84,-1,86,88,-1,90,92,-1,-1,94,96,-1,98,100,102,104,106,-1,-1,-1,-1,-1,-1,-1,-1,-1,-1,-1,-1,-1,-1,-1,-1,-1,-1,-1,-1,-1,-1,-1,-1,-1,-1,-1,-1,-1,-1,-1,-1,-1,-1,-1,-1,-1,-1,-1,-1,-1,-1,-1,-1,-1,-1],"split_conditions":[3E0,2.8571429E-2,8.35787E-2,1.664673E-3,2.447828E0,6.3319683E-1,1.1080163E0,1.3506924E1,1.3336313E0,9.780515E-3,2.0958433E0,3.0746907E-2,1.8410935E0,1.7484653E1,6.373577E-2,1.5339027E-1,1.7365146E-1,-6.62047E-1,4.94E0,4.6882352E-1,1.8043265E-1,2.0484804E-1,2.673596E0,9.724706E0,1.7505977E0,6.95E0,7.9339474E-1,4.9004802E-1,1.10634685E-1,3.8E-1,6.397804E0,-1.2842235E-1,2.8066666E0,-1.4564443E-1,3.14E0,-1.955685E-1,4.0842816E-1,2.3680992E-1,1.458289E-3,7.0103794E-1,2.7233334E0,2.4604325E0,6.818182E-2,3.579623E0,4.3584776E0,-3.7749533E-2,6.8575945E0,9.37076E-1,-1.5770473E-1,7.2288656E0,4.5E1,1.5768763E-1,-1.2045008E-2,1.4217932E0,3.3418488E-2,6.322803E-2,1.2419955E0,7.2E1,1.3568217E1,2.8397548E-1,5.5047026E0,-3.5940288E-3,1.5550958E-1,-6.281455E-2,8.731625E-2,6.932308E-2,-8.349854E-2,1.7696159E-2,-1.3301578E-1,1.4200285E-1,-4.447137E-2,9.886059E-2,-7.558753E-2,-1.761471E-2,1.3582984E-1,7.015994E-2,-2.09168E-2,-4.5156732E-2,1.6152708E-1,3.0466596E-2,2.1443705E-1,8.61179E-2,-7.315777E-2,-3.175923E-2,-1.5731564E-1,-4.6087325E-2,1.6878533E-1,-7.654474E-2,1.2301131E-1,-4.2529676E-2,-1.5377323E-1,1.3317852E-1,-2.9190024E-2,9.4859146E-2,-8.3768085E-2,1.02238216E-1,-6.0570184E-2,-2.7251402E-2,-1.6971557E-1,-1.1428238E-1,4.38794E-2,1.5556024E-2,6.636206E-2,9.092343E-2,-3.662255E-2,6.1939158E-2,-1.5851977E-1],"split_indices":[27,24,20,26,21,18,32,16,19,5,1,26,17,9,5,25,0,17,3,35,20,20,21,9,2,8,34,1,20,8,14,0,31,0,31,17,21,12,5,21,31,19,23,32,2,0,16,2,0,16,6,0,0,11,5,0,19,6,9,20,2,0,0,0,0,0,0,0,0,0,0,0,0,0,0,0,0,0,0,0,0,0,0,0,0,0,0,0,0,0,0,0,0,0,0,0,0,0,0,0,0,0,0,0,0,0,0],"split_type":[0,0,0,0,0,0,0,0,0,0,0,0,0,0,0,0,0,0,0,0,0,0,0,0,0,0,0,0,0,0,0,0,0,0,0,0,0,0,0,0,0,0,0,0,0,0,0,0,0,0,0,0,0,0,0,0,0,0,0,0,0,0,0,0,0,0,0,0,0,0,0,0,0,0,0,0,0,0,0,0,0,0,0,0,0,0,0,0,0,0,0,0,0,0,0,0,0,0,0,0,0,0,0,0,0,0,0],"sum_hessian":[5.384682E2,2.4092247E2,2.9754572E2,6.970661E1,1.7121587E2,5.245451E1,2.4509122E2,6.529795E0,6.3176815E1,1.4940555E2,2.1810324E1,1.9670317E1,3.278419E1,4.5145824E1,1.9994539E2,4.5696254E0,1.9601697E0,1.7043512E1,4.61333E1,5.666592E1,9.2739624E1,1.4551621E1,7.2587028E0,9.494667E0,1.017565E1,3.0106747E1,2.677444E0,3.059685E1,1.4548976E1,1.7019554E2,2.974985E1,1.951121E0,2.6185045E0,2.0939531E0,1.4949558E1,2.13458E1,2.47875E1,4.884494E0,5.1781425E1,1.1812325E1,8.09273E1,6.3175125E0,8.234109E0,4.057158E0,3.2015448E0,2.0943255E0,7.400341E0,6.53158E0,3.6440697E0,2.5579521E1,4.5272274E0,1.4717833E0,1.2056606E0,1.1126648E1,1.94702E1,1.1664559E0,1.338252E1,1.1795284E1,1.5840025E2,1.9875355E1,9.874495E0,1.1245426E0,1.4939618E0,4.6106353E0,1.0338923E1,6.188338E0,1.5157463E1,2.1078281E0,2.2679672E1,2.3923357E0,2.4921582E0,2.2205646E0,4.956086E1,3.4086697E0,8.403655E0,1.4731713E1,6.619559E1,4.338944E0,1.978569E0,1.911127E0,6.322982E0,2.8512616E0,1.2058961E0,1.033155E0,2.1683898E0,1.1261159E0,6.274225E0,3.9157395E0,2.6158407E0,1.020391E1,1.537561E1,1.4568545E0,3.0703728E0,1.6568198E0,9.469829E0,1.5338788E1,4.131413E0,3.0993717E0,1.0283148E1,6.9601054E0,4.8351784E0,4.1842506E1,1.1655775E2,1.009927E1,9.776084E0,2.188607E0,7.685888E0],"tree_param":{"num_deleted":"0","num_feature":"36","num_nodes":"107","size_leaf_vector":"1"}},{"base_weights":[-3.1100592E-2,-4.79206E-2,8.049152E-1,-1.5815945E-1,5.566082E-2,1.0896238E0,-1.13046944E-1,5.5371344E-2,-2.968097E-1,-5.717921E-1,9.514787E-2,1.3025056E0,-2.5622731E-2,-8.8334155E-1,1.3922018E-1,-3.240621E-1,1.8101113E-1,2.0768934E-1,-8.804614E-1,7.637488E-1,6.248884E-2,1.8599792E-1,5.221443E-2,1.1026922E-2,-1.0405519E0,-1.2641692E-1,3.719807E-1,4.4988385E-1,-3.696374E-1,-4.1976926E-1,1.4800085E-1,-1.062867E0,3.7185665E-2,-3.5412174E-1,1.0887369E0,-3.486336E-1,1.0860849E-1,-1.574231E-1,-1.9754885E-2,1.3857549E-2,-1.3694651E-1,6.106134E-2,-1.0603409E-1,-8.1554055E-2,1.2516704E-1,-3.6533937E-2,-1.0126107E-1,-1.2189156E-1,2.5845647E-2,-1.5683241E-1,1.4277237E-2,4.0859032E-2,-1.0867869E-1,-1.594997E-2,1.6990384E-1,-5.8373835E-2,9.889334E-2,2.017646E-2,-7.35535E-2],"categories":[],"categories_nodes":[],"categories_segments":[],"categories_sizes":[],"default_left":[0,0,0,0,0,0,0,0,0,0,0,0,0,0,0,0,0,0,0,0,0,0,0,0,0,0,0,0,0,0,0,0,0,0,0,0,0,0,0,0,0,0,0,0,0,0,0,0,0,0,0,0,0,0,0,0,0,0,0],"id":11,"left_children":[1,3,5,7,9,11,-1,13,15,17,19,21,-1,23,25,27,-1,29,31,33,35,-1,-1,-1,37,39,41,43,45,47,-1,49,-1,51,53,55,57,-1,-1,-1,-1,-1,-1,-1,-1,-1,-1,-1,-1,-1,-1,-1,-1,-1,-1,-1,-1,-1,-1],"loss_changes":[7.681305E0,6.103362E0,6.080681E0,7.67905E0,6.8905816E0,2.8999805E0,0E0,8.209423E0,7.6752634E0,4.147658E0,5.6391554E0,3.869629E-1,0E0,1.3909855E0,5.9317856E0,5.647558E0,0E0,3.6754913E0,2.8552685E0,4.759602E0,4.76665E0,0E0,0E0,0E0,9.341097E-1,9.857198E0,6.2625856E0,5.6131334E0,5.131296E0,1.4655793E0,0E0,1.896862E0,0E0,1.3759158E0,2.6735134E0,3.1526082E0,7.1251254E0,0E0,0E0,0E0,0E0,0E0,0E0,0E0,0E0,0E0,0E0,0E0,0E0,0E0,0E0,0E0,0E0,0E0,0E0,0E0,0E0,0E0,0E0],"parents":[2147483647,0,0,1,1,2,2,3,3,4,4,5,5,7,7,8,8,9,9,10,10,11,11,13,13,14,14,15,15,17,17,18,18,19,19,20,20,24,24,25,25,26,26,27,27,28,28,29,29,31,31,33,33,34,34,35,35,36,36],"right_children":[2,4,6,8,10,12,-1,14,16,18,20,22,-1,24,26,28,-1,30,32,34,36,-1,-1,-1,38,40,42,44,46,48,-1,50,-1,52,54,56,58,-1,-1,-1,-1,-1,-1,-1,-1,-1,-1,-1,-1,-1,-1,-1,-1,-1,-1,-1,-1,-1,-1],"split_conditions":[1.08E2,4E0,2.6251073E0,2E0,1.117972E-3,1.0796522E1,-1.13046944E-1,3.26E0,1.7015029E0,3.10672E-4,1.9636574E-1,2.69E0,-2.5622731E-2,3.8627172E-1,3.4633334E0,3.8304947E-2,1.8101113E-1,7.2E1,3.9298093E-1,-2.901801E-1,3.8E-1,1.8599792E-1,5.221443E-2,1.1026922E-2,1.1946471E0,1.32E0,8.872231E0,2.2E0,1.7618958E1,1.8424222E-1,1.4800085E-1,2.9081895E0,3.7185665E-2,6.971568E-1,9.553659E0,4.036693E-1,2.8522708E0,-1.574231E-1,-1.9754885E-2,1.3857549E-2,-1.3694651E-1,6.106134E-2,-1.0603409E-1,-8.1554055E-2,1.2516704E-1,-3.6533937E-2,-1.0126107E-1,-1.2189156E-1,2.5845647E-2,-1.5683241E-1,1.4277237E-2,4.0859032E-2,-1.0867869E-1,-1.594997E-2,1.6990384E-1,-5.8373835E-2,9.889334E-2,2.017646E-2,-7.35535E-2],"split_indices":[6,27,21,27,26,16,0,7,25,26,25,33,0,21,31,22,0,6,20,28,8,0,0,0,25,35,10,7,9,25,0,21,0,15,16,20,21,0,0,0,0,0,0,0,0,0,0,0,0,0,0,0,0,0,0,0,0,0,0],"split_type":[0,0,0,0,0,0,0,0,0,0,0,0,0,0,0,0,0,0,0,0,0,0,0,0,0,0,0,0,0,0,0,0,0,0,0,0,0,0,0,0,0,0,0,0,0,0,0,0,0,0,0,0,0,0,0,0,0,0,0],"sum_hessian":[5.425106E2,5.327351E2,9.775549E0,2.578188E2,2.7491632E2,8.652463E0,1.1230866E0,1.0173721E2,1.5608156E2,1.5478648E1,2.5943765E2,7.413315E0,1.2391479E0,7.5604763E0,9.4176735E1,1.5439632E2,1.6852456E0,4.4835367E0,1.0995111E1,1.1039976E1,2.4839769E2,5.9865E0,1.4268152E0,1.1206713E0,6.439805E0,4.419557E1,4.9981163E1,8.092954E0,1.4630336E2,3.0040522E0,1.4794844E0,9.584562E0,1.4105498E0,2.4664414E0,8.573535E0,2.4392992E1,2.240047E2,5.1074176E0,1.3323877E0,3.60198E1,8.175773E0,4.6756317E1,3.224846E0,2.5357199E0,5.557234E0,1.215308E2,2.4772568E1,1.3560705E0,1.6479815E0,8.523333E0,1.0612289E0,1.1776943E0,1.2887471E0,1.3672698E0,7.2062654E0,2.2922684E1,1.4703078E0,2.102864E2,1.3718294E1],"tree_param":{"num_deleted":"0","num_feature":"36","num_nodes":"59","size_leaf_vector":"1"}},{"base_weights":[-1.9598093E-2,-2.6717082E-1,3.553688E-2,1.414351E-1,-4.8479035E-1,-7.769027E-2,1.4003493E-1,-1.42613E-1,5.964109E-1,-6.9502634E-1,-3.6855914E-2,-1.3541037E-1,3.4144035E-1,-1.6766869E-1,2.3244692E-1,1.995148E-1,-7.1003884E-1,8.415768E-1,-3.069444E-1,1.22175284E-1,-7.734311E-1,-6.67116E-1,5.224073E-1,-2.890493E-1,5.652826E-2,8.2910997E-1,-1.0516917E-1,2.9923642E-1,-4.0424404E-1,8.3202225E-1,1.5272711E-1,4.858641E-1,-1.1601075E-1,5.4997865E-2,-1.1440136E0,-3.6794566E-2,1.1436687E0,-1.136678E-1,6.3300915E-2,-1.7529627E-2,-9.161691E-1,-1.1335506E0,1.3873506E-1,-4.8475933E-1,8.4982467E-1,3.7129182E-2,-4.8197514E-1,2.6036778E-1,-1.8177648E-1,3.5256878E-1,1.886282E-1,-1.3467957E-1,2.726799E-1,-2.9833913E-1,8.6950827E-1,1.07473545E-1,-4.8956263E-1,-6.9920786E-2,9.979561E-1,-2.4936168E-1,2.6486632E-1,1.1427077E-1,-8.8935144E-2,-6.361747E-2,6.757798E-2,-1.7875738E-1,-1.24968495E-2,1.6821958E-1,3.8726598E-2,1.0301338E-1,-6.599126E-2,-1.2670864E-1,4.112909E-2,-3.4058936E-2,-1.622025E-1,-9.942957E-2,1.1147537E-1,-1.2338393E-1,2.7203316E-2,1.6940191E-1,-1.6870197E-2,-1.6202675E-2,1.1867173E-1,2.7029507E-2,-7.855563E-2,1.0715549E-1,5.8063935E-4,-9.542502E-2,9.319728E-3,-3.0410288E-2,1.3430832E-1,8.236191E-2,-1.0496952E-1,1.0786964E-1,-1.0109402E-1,1.9763556E-1,-3.4515737E-3,-1.7844215E-1,-4.37054E-2,1.6121335E-1,4.0380754E-2,-1.2147692E-1,-3.5402938E-3,1.0409237E-1,2.107815E-2],"categories":[],"categories_nodes":[],"categories_segments":[],"categories_sizes":[],"default_left":[0,0,0,0,0,0,0,0,0,0,0,0,0,0,0,0,0,0,0,0,0,0,0,0,0,0,0,0,0,0,0,0,0,0,0,0,0,0,0,0,0,0,0,0,0,0,0,0,0,0,0,0,0,0,0,0,0,0,0,0,0,0,0,0,0,0,0,0,0,0,0,0,0,0,0,0,0,0,0,0,0,0,0,0,0,0,0,0,0,0,0,0,0,0,0,0,0,0,0,0,0,0,0,0,0],"id":12,"left_children":[1,3,5,7,9,11,13,15,17,19,21,23,25,27,29,31,33,35,37,-1,39,41,43,45,47,49,51,53,55,57,59,61,-1,63,65,-1,67,-1,-1,69,71,73,75,77,79,81,83,85,87,89,-1,-1,91,93,95,-1,97,-1,99,101,103,-1,-1,-1,-1,-1,-1,-1,-1,-1,-1,-1,-1,-1,-1,-1,-1,-1,-1,-1,-1,-1,-1,-1,-1,-1,-1,-1,-1,-1,-1,-1,-1,-1,-1,-1,-1,-1,-1,-1,-1,-1,-1,-1,-1],"loss_changes":[7.2937627E0,8.72196E0,5.1854157E0,4.5556035E0,5.9753523E0,5.1397457E0,6.516309E0,4.432689E0,3.2457E0,6.2742577E0,7.8954387E0,5.4946756E0,5.699634E0,5.996475E0,8.266177E0,4.984474E0,2.8961353E0,4.0174904E0,2.0479882E0,0E0,4.5023556E0,4.106096E0,4.337871E0,6.521221E0,4.099967E0,3.1632366E0,5.3188076E0,6.55116E0,4.1539006E0,5.1672926E0,7.1097913E0,6.1883492E0,0E0,1.2744918E0,1.1887388E0,0E0,7.202797E-1,0E0,0E0,3.4395635E0,2.7986279E0,3.3874702E-1,3.727394E0,1.3416095E0,4.305289E0,5.6747603E0,5.578104E0,6.5338497E0,5.5090914E0,3.5673914E0,0E0,0E0,4.78074E0,5.907254E0,5.6831317E0,0E0,4.1529617E0,0E0,2.6835136E0,5.2297187E0,6.6215315E0,0E0,0E0,0E0,0E0,0E0,0E0,0E0,0E0,0E0,0E0,0E0,0E0,0E0,0E0,0E0,0E0,0E0,0E0,0E0,0E0,0E0,0E0,0E0,0E0,0E0,0E0,0E0,0E0,0E0,0E0,0E0,0E0,0E0,0E0,0E0,0E0,0E0,0E0,0E0,0E0,0E0,0E0,0E0,0E0],"parents":[2147483647,0,0,1,1,2,2,3,3,4,4,5,5,6,6,7,7,8,8,9,9,10,10,11,11,12,12,13,13,14,14,15,15,16,16,17,17,18,18,20,20,21,21,22,22,23,23,24,24,25,25,26,26,27,27,28,28,29,29,30,30,31,31,33,33,34,34,36,36,39,39,40,40,41,41,42,42,43,43,44,44,45,45,46,46,47,47,48,48,49,49,52,52,53,53,54,54,56,56,58,58,59,59,60,60],"right_children":[2,4,6,8,10,12,14,16,18,20,22,24,26,28,30,32,34,36,38,-1,40,42,44,46,48,50,52,54,56,58,60,62,-1,64,66,-1,68,-1,-1,70,72,74,76,78,80,82,84,86,88,90,-1,-1,92,94,96,-1,98,-1,100,102,104,-1,-1,-1,-1,-1,-1,-1,-1,-1,-1,-1,-1,-1,-1,-1,-1,-1,-1,-1,-1,-1,-1,-1,-1,-1,-1,-1,-1,-1,-1,-1,-1,-1,-1,-1,-1,-1,-1,-1,-1,-1,-1,-1,-1],"split_conditions":[1.5E0,1.2079184E-1,4E0,3.3133333E0,9E0,2.0288825E0,1.15055196E-1,1.8011034E0,8.4E1,5.56749E-4,1.15168415E-1,4.14816E-2,1.4262723E0,2.9333334E0,9.933517E-2,9.4651717E-1,1.3411951E-1,1.2065663E0,3E0,1.22175284E-1,8.572778E0,1.5936437E0,1.569474E-1,2.6973038E0,1.1378234E1,1E0,6.226455E-3,1.39E0,3.269482E0,3.4254974E-1,4.24457E-1,1.7248049E1,-1.1601075E-1,8.35787E-2,3.8912228E-1,-3.6794566E-2,2.3869243E-2,-1.136678E-1,6.3300915E-2,4.9004802E-1,2.8522708E0,5.6472473E-2,2.6779138E-2,4.440433E-3,3.2733333E0,2.3891306E0,2.5433333E0,2E0,1.5433855E-1,8.615512E-1,1.886282E-1,-1.3467957E-1,2.739292E-2,1.2133334E0,9.255193E0,1.07473545E-1,3.2166667E0,-6.9920786E-2,7.4E1,5.654475E-3,2.438465E-1,1.1427077E-1,-8.8935144E-2,-6.361747E-2,6.757798E-2,-1.7875738E-1,-1.24968495E-2,1.6821958E-1,3.8726598E-2,1.0301338E-1,-6.599126E-2,-1.2670864E-1,4.112909E-2,-3.4058936E-2,-1.622025E-1,-9.942957E-2,1.1147537E-1,-1.2338393E-1,2.7203316E-2,1.6940191E-1,-1.6870197E-2,-1.6202675E-2,1.1867173E-1,2.7029507E-2,-7.855563E-2,1.0715549E-1,5.8063935E-4,-9.542502E-2,9.319728E-3,-3.0410288E-2,1.3430832E-1,8.236191E-2,-1.0496952E-1,1.0786964E-1,-1.0109402E-1,1.9763556E-1,-3.4515737E-3,-1.7844215E-1,-4.37054E-2,1.6121335E-1,4.0380754E-2,-1.2147692E-1,-3.5402938E-3,1.0409237E-1,2.107815E-2],"split_indices":[33,34,27,31,30,34,20,19,6,4,22,4,18,31,10,22,20,19,27,0,9,32,34,2,16,29,5,7,14,18,10,9,0,20,12,0,5,0,0,1,21,1,22,26,31,2,31,27,24,25,0,0,28,31,16,0,31,0,6,26,12,0,0,0,0,0,0,0,0,0,0,0,0,0,0,0,0,0,0,0,0,0,0,0,0,0,0,0,0,0,0,0,0,0,0,0,0,0,0,0,0,0,0,0,0],"split_type":[0,0,0,0,0,0,0,0,0,0,0,0,0,0,0,0,0,0,0,0,0,0,0,0,0,0,0,0,0,0,0,0,0,0,0,0,0,0,0,0,0,0,0,0,0,0,0,0,0,0,0,0,0,0,0,0,0,0,0,0,0,0,0,0,0,0,0,0,0,0,0,0,0,0,0,0,0,0,0,0,0,0,0,0,0,0,0,0,0,0,0,0,0,0,0,0,0,0,0,0,0,0,0,0,0],"sum_hessian":[5.3264935E2,9.6315926E1,4.3633344E2,3.3592392E1,6.272353E1,2.0954303E2,2.2679039E2,2.1103632E1,1.2488761E1,4.2312656E1,2.0410873E1,1.8477402E2,2.4769014E1,5.2192154E1,1.7459824E2,1.3570015E1,7.5336165E0,9.876671E0,2.61209E0,1.435102E0,4.0877556E1,9.505654E0,1.0905219E1,1.0234507E2,8.242895E1,1.1430821E1,1.3338194E1,1.7462767E1,3.4729385E1,1.938279E1,1.5521545E2,1.118794E1,2.3820753E0,3.0428207E0,4.4907956E0,2.1053448E0,7.771326E0,1.465089E0,1.147001E0,6.6712475E0,3.4206306E1,5.763204E0,3.7424507E0,2.5575132E0,8.347706E0,3.8336815E1,6.4008255E1,4.4377247E1,3.8051697E1,7.351249E0,4.079572E0,3.352035E0,9.986158E0,8.7600975E0,8.702669E0,1.6897247E0,3.303966E1,1.8531365E0,1.7529654E1,3.358144E1,1.2163401E2,8.564455E0,2.6234848E0,1.3769587E0,1.6658618E0,3.4292088E0,1.0615869E0,6.1598225E0,1.6115037E0,2.2823083E0,4.3889394E0,3.288379E1,1.3225179E0,1.0403401E0,4.722864E0,1.6292088E0,2.113242E0,1.3137479E0,1.2437654E0,5.487471E0,2.860235E0,3.308175E1,5.255064E0,9.489568E0,5.451869E1,1.31751585E1,3.1202087E1,1.1383769E1,2.6667929E1,4.298433E0,3.0528164E0,7.797562E0,2.1885967E0,2.3920748E0,6.368023E0,4.6439376E0,4.0587316E0,3.730702E0,2.9308958E1,1.239048E1,5.1391726E0,7.447895E0,2.6133545E1,1.8531261E1,1.0310275E2],"tree_param":{"num_deleted":"0","num_feature":"36","num_nodes":"105","size_leaf_vector":"1"}},{"base_weights":[1.4418906E-2,-3.3933993E-2,1.8859427E-1,3.567516E-1,-6.9069706E-2,8.46882E-2,6.675368E-1,-4.1310483E-1,6.271191E-1,1.15315616E-1,-1.5096112E-1,1.6703479E-1,-4.7274145E-1,9.817132E-1,-1.583678E-1,-7.391757E-1,9.175593E-2,-5.297743E-1,9.0135837E-1,-1.4347345E-1,1.4881858E-1,4.402046E-1,-1.9238253E-1,-2.798107E-1,2.8422886E-1,8.781743E-2,-7.689131E-1,-5.9365954E-2,1.1309619E0,1.0262041E-1,-7.099875E-1,4.4996668E-2,-9.7811514E-1,2.2426984E-1,-1.6641049E-1,1.1357436E0,-4.5535457E-1,-4.173743E-1,2.1886213E-1,-2.0157562E-1,1.0523919E0,-3.1046057E-2,-3.309693E-1,-7.69603E-1,3.7075844E-1,7.6263887E-1,1.1254813E-1,-1.0378337E0,1.8274464E-2,1.2840849E0,-4.3320614E-3,-1.47093935E-2,-1.3803966E-1,-1.6668555E-1,1.2585764E-2,-7.363533E-2,1.1185251E-1,4.849553E-2,1.9131364E-1,3.5902273E-2,-1.215861E-1,-1.2161099E-1,4.970875E-2,1.5201074E-2,1.0402199E-1,-7.5269975E-2,1.1114912E-1,1.7267983E-1,2.979975E-2,1.26981195E-2,-6.824237E-2,-3.5800956E-2,-1.4421183E-1,3.7032455E-2,-1.3126689E-1,-8.33921E-2,1.0364604E-1,2.6453703E-3,1.7646669E-1,-3.333616E-2,4.7800653E-2,-1.6315374E-1,-3.6674824E-2,-9.9310584E-2,7.9437844E-2,1.9675487E-1,7.388329E-2],"categories":[],"categories_nodes":[],"categories_segments":[],"categories_sizes":[],"default_left":[0,0,0,0,0,0,0,0,0,0,0,0,0,0,0,0,0,0,0,0,0,0,0,0,0,0,0,0,0,0,0,0,0,0,0,0,0,0,0,0,0,0,0,0,0,0,0,0,0,0,0,0,0,0,0,0,0,0,0,0,0,0,0,0,0,0,0,0,0,0,0,0,0,0,0,0,0,0,0,0,0,0,0,0,0,0,0],"id":13,"left_children":[1,3,5,7,9,11,13,15,17,19,21,23,25,27,29,31,-1,33,35,-1,37,39,41,43,45,-1,47,-1,49,-1,51,-1,53,55,-1,57,59,61,63,65,67,69,71,73,75,77,79,81,83,85,-1,-1,-1,-1,-1,-1,-1,-1,-1,-1,-1,-1,-1,-1,-1,-1,-1,-1,-1,-1,-1,-1,-1,-1,-1,-1,-1,-1,-1,-1,-1,-1,-1,-1,-1,-1,-1],"loss_changes":[4.4542317E0,5.710634E0,5.6619062E0,7.4068604E0,5.768512E0,4.465812E0,5.433242E0,3.9950986E0,8.666827E0,4.9660277E0,6.5535283E0,4.4787807E0,4.7880974E0,3.7077475E0,3.9372098E0,2.3770843E0,0E0,3.4354577E0,7.270111E0,0E0,4.669195E0,7.127842E0,5.525236E0,6.00773E0,5.421109E0,0E0,2.231604E0,0E0,2.4961948E0,0E0,8.4559536E-1,0E0,2.3055167E0,2.3074808E0,0E0,4.1440563E0,1.6030762E0,5.7511177E0,6.0306807E0,4.245552E0,1.7682142E0,7.3792596E0,5.4744587E0,2.9502354E0,4.12164E0,7.6941347E0,4.8384256E0,9.2056465E-1,2.1516879E0,1.1300335E0,0E0,0E0,0E0,0E0,0E0,0E0,0E0,0E0,0E0,0E0,0E0,0E0,0E0,0E0,0E0,0E0,0E0,0E0,0E0,0E0,0E0,0E0,0E0,0E0,0E0,0E0,0E0,0E0,0E0,0E0,0E0,0E0,0E0,0E0,0E0,0E0,0E0],"parents":[2147483647,0,0,1,1,2,2,3,3,4,4,5,5,6,6,7,7,8,8,9,9,10,10,11,11,12,12,13,13,14,14,15,15,17,17,18,18,20,20,21,21,22,22,23,23,24,24,26,26,28,28,30,30,32,32,33,33,35,35,36,36,37,37,38,38,39,39,40,40,41,41,42,42,43,43,44,44,45,45,46,46,47,47,48,48,49,49],"right_children":[2,4,6,8,10,12,14,16,18,20,22,24,26,28,30,32,-1,34,36,-1,38,40,42,44,46,-1,48,-1,50,-1,52,-1,54,56,-1,58,60,62,64,66,68,70,72,74,76,78,80,82,84,86,-1,-1,-1,-1,-1,-1,-1,-1,-1,-1,-1,-1,-1,-1,-1,-1,-1,-1,-1,-1,-1,-1,-1,-1,-1,-1,-1,-1,-1,-1,-1,-1,-1,-1,-1,-1,-1],"split_conditions":[2.4551833E0,3.195731E-1,4.0108716E-1,5.6992568E-2,6.988754E-1,2.5818974E-1,1.0355873E1,1.0702346E1,4.4905224E0,4.96378E-4,8.305054E-1,2.4604692E-1,2.5114398E0,-3.1537685E-1,2.438465E-1,4.35789E0,9.175593E-2,4.4109845E-1,8.198059E0,-1.4347345E-1,2.5E-2,3.0779302E0,1.4679922E0,1.2730938E1,5.872245E-3,8.781743E-2,4.235286E0,-5.9365954E-2,5.9955686E-2,1.0262041E-1,1.4520351E0,4.4996668E-2,9.173113E0,3.34E0,-1.6641049E-1,2.8266666E0,2.2031818E-2,7.1748066E0,2.0347036E1,5.91E0,3.54E0,1.9300833E1,8.872231E0,1.4147651E0,2.29E0,5.397059E-1,3.0746907E-2,6.737259E0,2.5895522E0,3.95E0,-4.3320614E-3,-1.47093935E-2,-1.3803966E-1,-1.6668555E-1,1.2585764E-2,-7.363533E-2,1.1185251E-1,4.849553E-2,1.9131364E-1,3.5902273E-2,-1.215861E-1,-1.2161099E-1,4.970875E-2,1.5201074E-2,1.0402199E-1,-7.5269975E-2,1.1114912E-1,1.7267983E-1,2.979975E-2,1.26981195E-2,-6.824237E-2,-3.5800956E-2,-1.4421183E-1,3.7032455E-2,-1.3126689E-1,-8.33921E-2,1.0364604E-1,2.6453703E-3,1.7646669E-1,-3.333616E-2,4.7800653E-2,-1.6315374E-1,-3.6674824E-2,-9.9310584E-2,7.9437844E-2,1.9675487E-1,7.388329E-2],"split_indices":[21,21,20,20,18,26,16,16,14,5,2,34,21,17,12,14,0,34,2,0,23,18,19,9,26,0,18,0,4,0,18,0,13,31,0,31,4,14,9,7,33,9,10,19,31,34,26,2,21,31,0,0,0,0,0,0,0,0,0,0,0,0,0,0,0,0,0,0,0,0,0,0,0,0,0,0,0,0,0,0,0,0,0,0,0,0,0],"split_type":[0,0,0,0,0,0,0,0,0,0,0,0,0,0,0,0,0,0,0,0,0,0,0,0,0,0,0,0,0,0,0,0,0,0,0,0,0,0,0,0,0,0,0,0,0,0,0,0,0,0,0,0,0,0,0,0,0,0,0,0,0,0,0,0,0,0,0,0,0,0,0,0,0,0,0,0,0,0,0,0,0,0,0,0,0,0,0],"sum_hessian":[5.271279E2,4.1321915E2,1.1390877E2,3.334059E1,3.7987854E2,9.4568954E1,1.9339811E1,8.52843E0,2.4812162E1,1.1670326E2,2.631753E2,8.300704E1,1.1561912E1,1.3873603E1,5.4662094E0,6.8652806E0,1.6631494E0,4.576049E0,2.0236113E1,2.2705803E0,1.1443268E2,1.6602158E1,2.4657312E2,1.6958593E1,6.6048454E1,2.1097E0,9.452211E0,1.1112742E0,1.2762328E1,1.8541229E0,3.6120865E0,1.1584237E0,5.7068567E0,2.629206E0,1.946843E0,1.7394003E1,2.8421102E0,1.2052029E1,1.0238065E2,8.432629E0,8.16953E0,1.1450065E2,1.3207248E2,9.57039E0,7.388203E0,1.6533522E1,4.9514927E1,6.8080316E0,2.64418E0,1.1187948E1,1.5743805E0,1.8259469E0,1.7861396E0,4.303491E0,1.4033659E0,1.2204138E0,1.408792E0,5.942236E0,1.1451767E1,1.2924879E0,1.5496224E0,7.2155685E0,4.8364606E0,8.80915E1,1.4289154E1,6.5476995E0,1.8849294E0,5.6688805E0,2.500649E0,9.145803E1,2.3042618E1,1.2447482E2,7.597652E0,1.7336528E0,7.8367367E0,2.0384007E0,5.3498025E0,7.803707E0,8.729815E0,2.0229834E1,2.9285093E1,4.784331E0,2.0237007E0,1.0154388E0,1.6287413E0,7.646918E0,3.5410302E0],"tree_param":{"num_deleted":"0","num_feature":"36","num_nodes":"87","size_leaf_vector":"1"}},{"base_weights":[-3.056637E-2,7.7882856E-2,-1.16104424E-1,-3.1734034E-3,5.248226E-1,-9.9587256E-1,-8.310248E-2,-1.025322E0,2.3705157E-2,2.7363572E-1,1.1730007E0,-1.2797443E0,1.5412434E-2,-1.5241694E-1,2.592885E-1,-1.6361108E-1,-1.6335368E-2,1.5337358E-1,-2.3794967E-1,1.2923818E0,6.4759366E-2,1.4039648E0,-3.0219052E-2,-1.7701553E-1,-4.680467E-2,-1.01842046E-1,-5.567503E-1,5.297844E-1,-1.8364753E-1,1.2809708E-2,4.3835798E-1,2.0891099E-1,-5.6654596E-1,1.9865556E-1,4.128438E-2,-5.111596E-1,3.4199196E-1,3.9397933E-2,2.0098309E-1,-5.4685116E-1,-5.3417113E-2,-1.4226055E-1,-1.1002182E0,2.1070053E-1,1.1818906E0,2.0245016E-1,-7.6350266E-1,8.442466E-2,-1.1059612E-2,-2.3398746E-2,1.0888953E-1,-7.615323E-2,7.279064E-2,5.006148E-2,-1.0321449E-1,3.127819E-3,-1.5687656E-1,1.3459959E-2,1.7250386E-1,-9.869077E-2,1.1483956E-1,-3.4970865E-2,7.533004E-3,6.5433696E-2,-1.1302239E-1,-1.6057964E-1,-8.356465E-3,-4.044984E-2,1.1717706E-1,4.5919586E-2,2.0205018E-1,-9.248014E-2,9.610588E-2,-1.4851992E-1,-7.906949E-3],"categories":[],"categories_nodes":[],"categories_segments":[],"categories_sizes":[],"default_left":[0,0,0,0,0,0,0,0,0,0,0,0,0,0,0,0,0,0,0,0,0,0,0,0,0,0,0,0,0,0,0,0,0,0,0,0,0,0,0,0,0,0,0,0,0,0,0,0,0,0,0,0,0,0,0,0,0,0,0,0,0,0,0,0,0,0,0,0,0,0,0,0,0,0,0],"id":14,"left_children":[1,3,5,7,9,11,13,15,17,19,21,23,-1,25,27,-1,-1,29,31,33,35,37,-1,-1,-1,39,41,43,45,47,49,51,53,-1,-1,55,57,-1,-1,59,61,63,65,67,69,71,73,-1,-1,-1,-1,-1,-1,-1,-1,-1,-1,-1,-1,-1,-1,-1,-1,-1,-1,-1,-1,-1,-1,-1,-1,-1,-1,-1,-1],"loss_changes":[4.945971E0,8.524791E0,8.56727E0,5.5230546E0,5.5604544E0,3.530056E0,6.8803663E0,9.1659975E-1,6.6862473E0,5.733782E0,3.5016565E0,1.4673042E-1,0E0,4.8581862E0,5.9560184E0,0E0,0E0,5.2683926E0,9.712117E0,5.6532097E-1,3.9652126E0,8.5307693E-1,0E0,0E0,0E0,4.600708E0,5.8122387E0,6.1215687E0,4.471569E0,5.601724E0,1.0850534E1,8.23349E0,8.475548E0,0E0,0E0,3.0441403E0,3.7635362E0,0E0,0E0,7.008837E0,4.684952E0,8.015715E0,1.4873629E0,8.111157E0,2.4762106E0,6.576295E0,2.031928E0,0E0,0E0,0E0,0E0,0E0,0E0,0E0,0E0,0E0,0E0,0E0,0E0,0E0,0E0,0E0,0E0,0E0,0E0,0E0,0E0,0E0,0E0,0E0,0E0,0E0,0E0,0E0,0E0],"parents":[2147483647,0,0,1,1,2,2,3,3,4,4,5,5,6,6,7,7,8,8,9,9,10,10,11,11,13,13,14,14,17,17,18,18,19,19,20,20,21,21,25,25,26,26,27,27,28,28,29,29,30,30,31,31,32,32,35,35,36,36,39,39,40,40,41,41,42,42,43,43,44,44,45,45,46,46],"right_children":[2,4,6,8,10,12,14,16,18,20,22,24,-1,26,28,-1,-1,30,32,34,36,38,-1,-1,-1,40,42,44,46,48,50,52,54,-1,-1,56,58,-1,-1,60,62,64,66,68,70,72,74,-1,-1,-1,-1,-1,-1,-1,-1,-1,-1,-1,-1,-1,-1,-1,-1,-1,-1,-1,-1,-1,-1,-1,-1,-1,-1,-1,-1],"split_conditions":[1.2248302E-2,1.037438E-2,8.259429E0,-1.3936275E0,4.342066E-2,3.3378034E0,2.1010101E-1,1.7285196E-1,1.7038989E0,8.5435E0,1.0378215E0,8.3E1,1.5412434E-2,1.8316373E-1,4.4312468E0,-1.6361108E-1,-1.6335368E-2,6.7035455E-1,1.9568334E0,1.5074813E0,1.3644674E0,2.1870328E-1,-3.0219052E-2,-1.7701553E-1,-4.680467E-2,1.7737338E-2,1.802711E0,6.1764705E-1,4.5983526E-1,3.195731E-1,4.4109845E-1,2.8066666E0,3.5E1,1.9865556E-1,4.128438E-2,1.246304E0,9.5E1,3.9397933E-2,2.0098309E-1,7.7955337E0,1.5446285E1,1.7340127E0,1.2134291E0,1.8875172E0,1.549872E0,8.14E0,2.4444444E-1,8.442466E-2,-1.1059612E-2,-2.3398746E-2,1.0888953E-1,-7.615323E-2,7.279064E-2,5.006148E-2,-1.0321449E-1,3.127819E-3,-1.5687656E-1,1.3459959E-2,1.7250386E-1,-9.869077E-2,1.1483956E-1,-3.4970865E-2,7.533004E-3,6.5433696E-2,-1.1302239E-1,-1.6057964E-1,-8.356465E-3,-4.044984E-2,1.1717706E-1,4.5919586E-2,2.0205018E-1,-9.248014E-2,9.610588E-2,-1.4851992E-1,-7.906949E-3],"split_indices":[5,5,9,28,26,18,24,1,15,9,22,6,0,24,1,0,0,15,11,32,19,18,0,0,0,22,21,23,20,21,34,31,6,0,0,19,6,0,0,11,9,32,22,19,15,7,24,0,0,0,0,0,0,0,0,0,0,0,0,0,0,0,0,0,0,0,0,0,0,0,0,0,0,0,0],"split_type":[0,0,0,0,0,0,0,0,0,0,0,0,0,0,0,0,0,0,0,0,0,0,0,0,0,0,0,0,0,0,0,0,0,0,0,0,0,0,0,0,0,0,0,0,0,0,0,0,0,0,0,0,0,0,0,0,0,0,0,0,0,0,0,0,0,0,0,0,0,0,0,0,0,0,0],"sum_hessian":[5.3119525E2,2.3426826E2,2.9692697E2,1.9914462E2,3.5123642E1,9.680747E0,2.8724625E2,4.150777E0,1.9499385E2,2.6338795E1,8.784847E0,7.5969234E0,2.083824E0,2.3934708E2,4.7899162E1,2.9847147E0,1.1660621E0,1.3065761E2,6.4336235E1,3.5988638E0,2.2739931E1,7.5455093E0,1.2393382E0,6.546729E0,1.0501941E0,2.1385011E2,2.5496965E1,2.9616585E1,1.828258E1,8.819957E1,4.2458046E1,2.7416523E1,3.6919712E1,2.446468E0,1.1523955E0,7.1151757E0,1.5624755E1,1.2096634E0,6.335846E0,1.9976835E1,1.9387328E2,1.5180745E1,1.031622E1,2.0774477E1,8.842108E0,1.1365621E1,6.91696E0,1.1004905E1,7.7194664E1,1.6852777E1,2.5605267E1,8.188921E0,1.9227602E1,6.966811E0,2.99529E1,4.562928E0,2.5522473E0,1.3463866E1,2.1608887E0,1.78111E1,2.1657367E0,6.558867E1,1.2828459E2,8.202423E0,6.9783216E0,8.968499E0,1.3477216E0,1.2142115E1,8.632361E0,3.3345435E0,5.507564E0,4.083647E0,7.281974E0,4.093245E0,2.8237145E0],"tree_param":{"num_deleted":"0","num_feature":"36","num_nodes":"75","size_leaf_vector":"1"}},{"base_weights":[-7.862604E-3,-1.4113484E-1,6.878242E-2,-2.7870336E-1,3.381854E-2,8.913541E-2,-7.84191E-1,-4.2148727E-1,1.5622555E-1,-2.1064529E-1,4.0852487E-1,1.332494E-1,-2.9997942E-1,-1.6664647E-1,-5.4745756E-2,-5.276289E-1,2.5450525E-1,5.185913E-1,-5.187913E-1,-6.1128087E-2,-9.4946545E-1,7.192291E-1,-1.3866416E-1,-8.943869E-3,3.0872136E-1,2.9228315E-1,-5.77614E-1,-1.1614619E-1,8.483539E-2,9.545067E-2,-5.739371E-1,7.015316E-1,-3.9082173E-1,-1.334599E-1,8.937062E-1,2.4366434E-1,-1.650531E-1,-5.1099944E-1,2.7377358E-1,2.9130343E-2,-1.142056E0,-1.1087132E-1,8.4624434E-1,9.2028767E-1,-6.7897063E-1,-1.9692777E-1,1.9503295E-1,-4.1996238E-1,3.6813888E-1,-1.7660402E-1,9.4071025E-1,-8.991179E-1,-8.085336E-2,-1.6145828E-1,-6.302655E-2,-4.580262E-2,1.2603447E-1,7.018407E-2,-1.2011127E-1,-1.1011576E-1,1.2611374E-1,1.42927E-1,-5.8392454E-2,-7.4695304E-2,8.205289E-2,-9.8259486E-2,6.809271E-2,-5.7352476E-2,7.221485E-2,-1.6047339E-1,-3.5847053E-2,1.3430156E-1,-7.068581E-2,-1.6072833E-3,1.8306123E-1,5.443705E-2,-1.16252884E-1,1.1699316E-2,-5.211914E-2,6.765109E-2,-2.5257315E-3,-1.23577E-1,9.6461855E-2,3.7587177E-2,1.6061984E-1,2.5081081E-2,-1.3417755E-1,3.6149435E-3,1.5831244E-1,1.4864511E-2,-1.5238264E-1,-1.4137992E-1,3.995479E-2],"categories":[],"categories_nodes":[],"categories_segments":[],"categories_sizes":[],"default_left":[0,0,0,0,0,0,0,0,0,0,0,0,0,0,0,0,0,0,0,0,0,0,0,0,0,0,0,0,0,0,0,0,0,0,0,0,0,0,0,0,0,0,0,0,0,0,0,0,0,0,0,0,0,0,0,0,0,0,0,0,0,0,0,0,0,0,0,0,0,0,0,0,0,0,0,0,0,0,0,0,0,0,0,0,0,0,0,0,0,0,0,0,0],"id":15,"left_children":[1,3,5,7,9,11,13,15,17,19,21,23,25,-1,27,29,31,33,35,37,39,41,43,45,47,49,51,-1,-1,-1,53,55,57,59,61,63,-1,65,67,-1,69,-1,71,73,75,77,79,81,83,85,87,89,91,-1,-1,-1,-1,-1,-1,-1,-1,-1,-1,-1,-1,-1,-1,-1,-1,-1,-1,-1,-1,-1,-1,-1,-1,-1,-1,-1,-1,-1,-1,-1,-1,-1,-1,-1,-1,-1,-1,-1,-1],"loss_changes":[5.340533E0,4.6034584E0,5.833667E0,6.70835E0,7.86431E0,5.6215453E0,2.767785E0,5.9315653E0,6.913909E0,5.691436E0,5.8574514E0,7.3070545E0,5.663795E0,0E0,3.0787988E0,4.517908E0,3.6318893E0,4.565202E0,6.0168657E0,6.822686E0,2.2195644E0,5.063774E0,8.122251E0,6.276233E0,5.8293657E0,3.6107583E0,3.6147313E0,0E0,0E0,0E0,3.4777527E0,2.374618E0,3.1727414E0,6.7187424E0,3.695961E0,2.1930594E0,0E0,5.259583E0,5.481924E0,0E0,2.618866E-1,0E0,5.8843994E0,2.2177706E0,2.548964E0,5.0073624E0,5.4788384E0,7.0672045E0,8.005819E0,2.5390139E0,1.202744E0,3.966218E0,4.2996793E0,0E0,0E0,0E0,0E0,0E0,0E0,0E0,0E0,0E0,0E0,0E0,0E0,0E0,0E0,0E0,0E0,0E0,0E0,0E0,0E0,0E0,0E0,0E0,0E0,0E0,0E0,0E0,0E0,0E0,0E0,0E0,0E0,0E0,0E0,0E0,0E0,0E0,0E0,0E0,0E0],"parents":[2147483647,0,0,1,1,2,2,3,3,4,4,5,5,6,6,7,7,8,8,9,9,10,10,11,11,12,12,14,14,15,15,16,16,17,17,18,18,19,19,20,20,21,21,22,22,23,23,24,24,25,25,26,26,30,30,31,31,32,32,33,33,34,34,35,35,37,37,38,38,40,40,42,42,43,43,44,44,45,45,46,46,47,47,48,48,49,49,50,50,51,51,52,52],"right_children":[2,4,6,8,10,12,14,16,18,20,22,24,26,-1,28,30,32,34,36,38,40,42,44,46,48,50,52,-1,-1,-1,54,56,58,60,62,64,-1,66,68,-1,70,-1,72,74,76,78,80,82,84,86,88,90,92,-1,-1,-1,-1,-1,-1,-1,-1,-1,-1,-1,-1,-1,-1,-1,-1,-1,-1,-1,-1,-1,-1,-1,-1,-1,-1,-1,-1,-1,-1,-1,-1,-1,-1,-1,-1,-1,-1,-1,-1],"split_conditions":[1.42088E0,1.6312526E0,9.763416E-1,3.93E0,4.548565E-1,1.3816385E1,6.3E1,1.1188546E0,7.6E1,2.83E0,1.1442465E0,5.66E0,1.4899227E-1,-1.6664647E-1,3.7645134E-1,2.2E1,1.8759329E0,9.610345E-1,7.45E0,2.3026664E0,1.7172363E0,4.44E0,6.28E0,6.3E1,8.9046615E-1,2.6215345E-2,1.620267E1,-1.1614619E-1,8.483539E-2,9.545067E-2,6.1051207E0,1.41E0,2.901822E-1,2.7724838E-1,2.4203885E-1,1.2354017E-2,-1.650531E-1,9.6E1,4.09E0,2.9130343E-2,5.7722235E0,-1.1087132E-1,2.5E-1,1.1217949E-1,1.9110818E-1,2.89E0,7.609482E-3,7.0303698E0,1.1523927E0,6E0,1.2762108E1,1E0,2.1627803E-1,-1.6145828E-1,-6.302655E-2,-4.580262E-2,1.2603447E-1,7.018407E-2,-1.2011127E-1,-1.1011576E-1,1.2611374E-1,1.42927E-1,-5.8392454E-2,-7.4695304E-2,8.205289E-2,-9.8259486E-2,6.809271E-2,-5.7352476E-2,7.221485E-2,-1.6047339E-1,-3.5847053E-2,1.3430156E-1,-7.068581E-2,-1.6072833E-3,1.8306123E-1,5.443705E-2,-1.16252884E-1,1.1699316E-2,-5.211914E-2,6.765109E-2,-2.5257315E-3,-1.23577E-1,9.6461855E-2,3.7587177E-2,1.6061984E-1,2.5081081E-2,-1.3417755E-1,3.6149435E-3,1.5831244E-1,1.4864511E-2,-1.5238264E-1,-1.4137992E-1,3.995479E-2],"split_indices":[32,19,20,31,22,16,6,17,6,33,32,7,20,0,22,6,0,35,7,21,19,3,3,6,0,26,16,0,0,0,16,33,20,25,26,5,0,6,7,0,10,0,24,24,20,31,5,32,17,27,14,27,20,0,0,0,0,0,0,0,0,0,0,0,0,0,0,0,0,0,0,0,0,0,0,0,0,0,0,0,0,0,0,0,0,0,0,0,0,0,0,0,0],"split_type":[0,0,0,0,0,0,0,0,0,0,0,0,0,0,0,0,0,0,0,0,0,0,0,0,0,0,0,0,0,0,0,0,0,0,0,0,0,0,0,0,0,0,0,0,0,0,0,0,0,0,0,0,0,0,0,0,0,0,0,0,0,0,0,0,0,0,0,0,0,0,0,0,0,0,0,0,0,0,0,0,0,0,0,0,0,0,0,0,0,0,0,0,0],"sum_hessian":[5.208802E2,1.8987663E2,3.3100354E2,1.05963165E2,8.391347E1,3.241641E2,6.8394513E0,7.979723E1,2.6165932E1,5.1047306E1,3.286616E1,2.9174634E2,3.2417755E1,3.6207416E0,3.2187097E0,6.915782E1,1.0639409E1,1.717676E1,8.989173E0,4.335597E1,7.6913366E0,2.0762445E1,1.2103716E1,1.616791E2,1.3006723E2,1.0329545E1,2.2088211E1,1.352401E0,1.8663086E0,1.9240968E0,6.723373E1,6.233966E0,4.4054437E0,6.5081134E0,1.0668646E1,4.7903724E0,4.198801E0,1.8277756E1,2.5078215E1,1.0616128E0,6.629724E0,1.1260886E0,1.9636356E1,3.8516197E0,8.252096E0,8.4155975E1,7.752312E1,9.348705E0,1.2071852E2,6.416977E0,3.9125683E0,1.2917824E1,9.170387E0,6.4487376E0,6.078499E1,1.1956382E0,5.0383277E0,1.5981951E0,2.8072486E0,4.0942E0,2.4139132E0,9.416076E0,1.2525697E0,1.3830957E0,3.4072766E0,1.5007146E1,3.2706091E0,6.9207425E0,1.8157473E1,5.617262E0,1.0124619E0,1.7548326E1,2.0880299E0,1.6540437E0,2.197576E0,1.1927025E0,7.0593934E0,3.5163277E1,4.8992702E1,3.0263678E1,4.7259445E1,6.5456667E0,2.8030388E0,1.1180973E2,8.908791E0,5.020995E0,1.3959819E0,1.162864E0,2.7497044E0,2.8541923E0,1.0063631E1,2.051433E0,7.1189547E0],"tree_param":{"num_deleted":"0","num_feature":"36","num_nodes":"93","size_leaf_vector":"1"}},{"base_weights":[1.4554158E-2,4.810583E-2,-2.8249526E-1,-5.587863E-2,1.6395858E-1,-4.137541E-1,7.129458E-1,-1.0953335E-1,4.2859823E-1,4.5431808E-1,6.1672274E-2,2.309848E-1,-5.7071567E-1,-6.756199E-2,1.0782901E0,-8.439607E-2,-1.0551292E0,1.1797714E0,2.2474046E-1,-4.6335942E-1,5.664491E-1,4.3000028E-1,-6.5078825E-2,7.556006E-1,-4.1992113E-1,-9.7201866E-1,-2.0840938E-1,4.6772207E-3,1.9412486E-1,-1.1103722E-3,-3.3757132E-1,6.548235E-3,-1.7258273E-1,1.8774301E-1,1.1926372E-2,-1.3038279E-1,9.110501E-1,-8.8153917E-1,5.4040633E-2,-3.1056902E-1,6.46622E-1,5.219585E-1,-6.128185E-1,-6.51557E-1,6.670723E-2,-1.3181773E-2,1.052454E0,-1.09923795E-1,4.7822453E-2,-1.088229E0,5.020277E-2,1.5670556E-1,-9.3104684E-1,-1.05469925E-2,5.8094118E-2,-3.0309694E-2,-1.445006E-1,-4.9293384E-2,9.1753125E-2,1.7535895E-1,-3.4511483E-3,3.08206E-3,-1.5496862E-1,6.278249E-2,-1.0583738E-1,9.731636E-2,-2.125937E-2,1.1322275E-1,2.3186615E-2,2.9239897E-2,-1.3367893E-1,4.8048068E-2,-1.1078227E-1,4.084117E-2,-3.7592918E-2,2.763413E-2,1.8774216E-1,1.1062226E-2,-1.6226467E-1,7.608143E-2,-1.3466282E-1,-1.8407229E-1,-1.2479044E-2],"categories":[],"categories_nodes":[],"categories_segments":[],"categories_sizes":[],"default_left":[0,0,0,0,0,0,0,0,0,0,0,0,0,0,0,0,0,0,0,0,0,0,0,0,0,0,0,0,0,0,0,0,0,0,0,0,0,0,0,0,0,0,0,0,0,0,0,0,0,0,0,0,0,0,0,0,0,0,0,0,0,0,0,0,0,0,0,0,0,0,0,0,0,0,0,0,0,0,0,0,0,0,0],"id":16,"left_children":[1,3,5,7,9,11,13,15,17,19,21,23,25,-1,27,29,31,33,35,37,39,41,43,45,47,49,51,-1,-1,53,55,-1,-1,-1,-1,57,59,61,-1,63,65,67,69,71,73,-1,75,-1,-1,77,-1,79,81,-1,-1,-1,-1,-1,-1,-1,-1,-1,-1,-1,-1,-1,-1,-1,-1,-1,-1,-1,-1,-1,-1,-1,-1,-1,-1,-1,-1,-1,-1],"loss_changes":[5.2870145E0,5.746746E0,7.330229E0,6.5907288E0,6.670283E0,5.0100126E0,3.548604E0,5.3169985E0,3.6095963E0,6.2919655E0,7.8683314E0,3.783097E0,5.475704E0,0E0,2.2927074E0,4.6940136E0,1.8046389E0,1.344955E0,5.27048E0,2.9122791E0,3.9038868E0,4.4555864E0,9.767328E0,1.6270049E0,2.0399683E0,3.3004684E0,5.897024E0,0E0,0E0,6.063914E0,4.1989193E0,0E0,0E0,0E0,0E0,3.338742E0,3.0357065E0,1.431998E0,0E0,2.419803E0,4.101202E0,4.6514606E0,1.6030816E0,5.0376368E0,9.195949E0,0E0,1.1773481E0,0E0,0E0,3.2832222E0,0E0,8.423275E0,2.8757553E0,0E0,0E0,0E0,0E0,0E0,0E0,0E0,0E0,0E0,0E0,0E0,0E0,0E0,0E0,0E0,0E0,0E0,0E0,0E0,0E0,0E0,0E0,0E0,0E0,0E0,0E0,0E0,0E0,0E0,0E0],"parents":[2147483647,0,0,1,1,2,2,3,3,4,4,5,5,6,6,7,7,8,8,9,9,10,10,11,11,12,12,14,14,15,15,16,16,17,17,18,18,19,19,20,20,21,21,22,22,23,23,24,24,25,25,26,26,29,29,30,30,35,35,36,36,37,37,39,39,40,40,41,41,42,42,43,43,44,44,46,46,49,49,51,51,52,52],"right_children":[2,4,6,8,10,12,14,16,18,20,22,24,26,-1,28,30,32,34,36,38,40,42,44,46,48,50,52,-1,-1,54,56,-1,-1,-1,-1,58,60,62,-1,64,66,68,70,72,74,-1,76,-1,-1,78,-1,80,82,-1,-1,-1,-1,-1,-1,-1,-1,-1,-1,-1,-1,-1,-1,-1,-1,-1,-1,-1,-1,-1,-1,-1,-1,-1,-1,-1,-1,-1,-1],"split_conditions":[4.5918417E0,3.4133334E0,3.8624318E0,1.9124961E0,1.6622053E-1,7.5377517E0,7.614729E0,3.3833334E0,3.320261E-1,-7.7112657E-1,2.4648876E-1,9.903382E-2,2.820071E0,-6.756199E-2,8.664095E-2,3.94912E-2,1.959716E-1,9.736842E-1,1.0057122E1,8.2E1,9.4675645E-2,8E0,6.724643E-3,1.84357E0,4.2013073E0,6.357044E-2,1.3651882E0,4.6772207E-3,1.9412486E-1,1.2038889E0,2.2130904E0,6.548235E-3,-1.7258273E-1,1.8774301E-1,1.1926372E-2,2.0243537E0,2.498805E-1,2.4319759E-2,5.4040633E-2,3.7669346E-2,2.1473868E0,5.239301E-1,1.4358314E0,6.572579E-3,3.436337E0,-1.3181773E-2,9.096569E-1,-1.09923795E-1,4.7822453E-2,1.5412976E0,5.020277E-2,3.4075677E0,1.6100402E0,-1.05469925E-2,5.8094118E-2,-3.0309694E-2,-1.445006E-1,-4.9293384E-2,9.1753125E-2,1.7535895E-1,-3.4511483E-3,3.08206E-3,-1.5496862E-1,6.278249E-2,-1.0583738E-1,9.731636E-2,-2.125937E-2,1.1322275E-1,2.3186615E-2,2.9239897E-2,-1.3367893E-1,4.8048068E-2,-1.1078227E-1,4.084117E-2,-3.7592918E-2,2.763413E-2,1.8774216E-1,1.1062226E-2,-1.6226467E-1,7.608143E-2,-1.3466282E-1,-1.8407229E-1,-1.2479044E-2],"split_indices":[12,31,34,12,20,13,16,31,0,28,12,24,32,0,26,26,34,23,16,6,12,27,26,1,11,4,25,0,0,35,19,0,0,0,0,19,26,20,0,22,34,22,19,5,11,0,25,0,0,2,0,18,25,0,0,0,0,0,0,0,0,0,0,0,0,0,0,0,0,0,0,0,0,0,0,0,0,0,0,0,0,0,0],"split_type":[0,0,0,0,0,0,0,0,0,0,0,0,0,0,0,0,0,0,0,0,0,0,0,0,0,0,0,0,0,0,0,0,0,0,0,0,0,0,0,0,0,0,0,0,0,0,0,0,0,0,0,0,0,0,0,0,0,0,0,0,0,0,0,0,0,0,0,0,0,0,0,0,0,0,0,0,0,0,0,0,0,0,0],"sum_hessian":[5.281148E2,4.7527112E2,5.284372E1,2.5073753E2,2.2453357E2,4.720378E1,5.6399393E0,2.2643436E2,2.4303177E1,5.759562E1,1.6693796E2,9.149496E0,3.8054283E1,1.1936399E0,4.446299E0,2.2163185E2,4.8025055E0,4.1658106E0,2.0137367E1,5.9302554E0,5.1665363E1,4.212725E1,1.2481071E2,4.977166E0,4.1723304E0,1.7256985E1,2.0797298E1,1.5710564E0,2.875243E0,1.6752608E2,5.4105762E1,1.1056709E0,3.6968343E0,3.0930998E0,1.0727109E0,1.3804438E1,6.3329287E0,4.015606E0,1.9146497E0,4.0867147E0,4.7578648E1,3.917241E1,2.9548426E0,2.2176435E1,1.0263427E2,1.4501184E0,3.5270479E0,2.663155E0,1.5091752E0,1.6079277E1,1.1777076E0,1.4336755E1,6.4605446E0,1.4283249E2,2.469359E1,4.879667E1,5.309094E0,1.10621195E1,2.7423184E0,4.0233135E0,2.3096154E0,1.2574807E0,2.758125E0,1.6011208E0,2.485594E0,4.2366005E1,5.212644E0,1.870645E1,2.046596E1,1.129505E0,1.8253375E0,3.4891798E0,1.8687256E1,6.0621502E1,4.201277E1,1.6081059E0,1.9189419E0,1.9696233E0,1.4109653E1,1.0923173E1,3.4135816E0,3.6530316E0,2.807513E0],"tree_param":{"num_deleted":"0","num_feature":"36","num_nodes":"83","size_leaf_vector":"1"}},{"base_weights":[7.6302537E-3,-2.75544E-1,3.7576567E-2,-3.595573E-1,1.431307E-1,-7.045E-2,1.4413196E-1,-1.174452E-1,-7.836548E-1,2.3014916E-1,-1.472847E-1,4.1332448E-1,4.974976E-2,-2.6359466E-1,1.0412319E0,-8.903127E-1,5.0554335E-2,6.368171E-1,-1.4844878E-1,-6.9304454E-1,-7.564583E-2,-1.00102825E-2,6.5732557E-1,-6.1821535E-2,3.3798832E-1,1.3714334E-1,-3.5979253E-1,1.631553E-1,3.4631915E-2,-1.5130806E-1,-1.0810606E0,2.7554157E-1,1.0788223E0,-3.3902302E-1,7.047179E-1,-9.165375E-1,1.4398928E-1,6.96194E-1,-1.29317E-1,-9.7822756E-1,1.9954386E-1,1.0072172E0,1.6660418E-1,2.0228931E-1,-1.6569646E-1,8.525058E-1,1.8157965E-1,9.581027E-3,-8.402292E-2,-1.0671434E-1,1.2165972E-1,-4.7746547E-2,-1.676967E-1,1.261592E-1,-1.0598134E-1,-4.481397E-2,1.7455642E-1,1.5261589E-2,-9.7895496E-2,1.8497409E-1,-4.345604E-2,-1.545134E-2,-1.4081997E-1,1.3383394E-1,-5.4694675E-2,-1.22617E-1,1.369948E-1,-2.5506087E-2,7.12256E-2,-3.400617E-2,-1.4566109E-1,6.2168833E-2,-6.0068212E-2,1.4684342E-1,-2.0410217E-2,5.9605412E-2,-1.0636816E-1,-1.4693955E-2,6.996495E-2,1.458027E-1,-2.8991723E-2,1.4067356E-1,-8.043581E-3,4.3143846E-2,-5.3585064E-2],"categories":[],"categories_nodes":[],"categories_segments":[],"categories_sizes":[],"default_left":[0,0,0,0,0,0,0,0,0,0,0,0,0,0,0,0,0,0,0,0,0,0,0,0,0,0,0,0,0,0,0,0,0,0,0,0,0,0,0,0,0,0,0,0,0,0,0,0,0,0,0,0,0,0,0,0,0,0,0,0,0,0,0,0,0,0,0,0,0,0,0,0,0,0,0,0,0,0,0,0,0,0,0,0,0],"id":17,"left_children":[1,3,5,7,-1,9,11,13,15,17,19,21,23,25,27,29,-1,31,33,35,37,39,41,43,45,-1,47,-1,-1,49,51,53,55,57,59,61,63,65,67,69,71,73,75,77,79,81,83,-1,-1,-1,-1,-1,-1,-1,-1,-1,-1,-1,-1,-1,-1,-1,-1,-1,-1,-1,-1,-1,-1,-1,-1,-1,-1,-1,-1,-1,-1,-1,-1,-1,-1,-1,-1,-1,-1],"loss_changes":[4.433947E0,6.1737776E0,5.4506135E0,4.824668E0,0E0,5.470131E0,6.0331087E0,5.635517E0,2.4992743E0,7.531749E0,7.3005066E0,6.3815203E0,5.7308054E0,4.042891E0,2.834735E-1,2.104906E0,0E0,3.45187E0,4.438138E0,4.191308E0,7.0232835E0,4.973482E0,6.556919E0,3.568434E0,3.8449998E0,0E0,3.4774263E0,0E0,0E0,4.008585E0,1.3984461E0,1.1573936E1,4.2771893E0,4.1955204E0,4.2258863E0,2.1505318E0,3.1452327E0,7.43751E0,7.203427E0,1.482234E-1,3.9331243E0,3.3715076E0,5.3915596E0,3.9521759E0,7.0766554E0,2.4297886E0,3.6399546E0,0E0,0E0,0E0,0E0,0E0,0E0,0E0,0E0,0E0,0E0,0E0,0E0,0E0,0E0,0E0,0E0,0E0,0E0,0E0,0E0,0E0,0E0,0E0,0E0,0E0,0E0,0E0,0E0,0E0,0E0,0E0,0E0,0E0,0E0,0E0,0E0,0E0,0E0],"parents":[2147483647,0,0,1,1,2,2,3,3,5,5,6,6,7,7,8,8,9,9,10,10,11,11,12,12,13,13,14,14,15,15,17,17,18,18,19,19,20,20,21,21,22,22,23,23,24,24,26,26,29,29,30,30,31,31,32,32,33,33,34,34,35,35,36,36,37,37,38,38,39,39,40,40,41,41,42,42,43,43,44,44,45,45,46,46],"right_children":[2,4,6,8,-1,10,12,14,16,18,20,22,24,26,28,30,-1,32,34,36,38,40,42,44,46,-1,48,-1,-1,50,52,54,56,58,60,62,64,66,68,70,72,74,76,78,80,82,84,-1,-1,-1,-1,-1,-1,-1,-1,-1,-1,-1,-1,-1,-1,-1,-1,-1,-1,-1,-1,-1,-1,-1,-1,-1,-1,-1,-1,-1,-1,-1,-1,-1,-1,-1,-1,-1,-1],"split_conditions":[5.946167E-2,1.8410935E0,4E0,3.0361748E-1,1.431307E-1,2.7533333E0,8.392974E-3,2.8419876E0,1.6458676E0,1.3286396E0,2.1514761E0,9.104E-1,6.1745434E0,5.56749E-4,2.6185755E-2,7.988193E-2,5.0554335E-2,6.4822507E-1,2.354114E0,1.050558E1,2.73092E0,2.063929E-3,3.94912E-2,5.13488E-1,9.7E0,1.3714334E-1,3.609982E-3,1.631553E-1,3.4631915E-2,1.2817632E0,1.857287E-3,5.994077E-3,-4.1443107E-1,3.2851735E-1,1.3963965E-1,1.05564475E-1,3.46E0,5.908951E0,3.6E1,1.07168E-3,9.285714E-1,5.050381E0,2.4684E0,2.9478312E-2,-1.2286004E0,4.909166E-1,1.0850281E1,9.581027E-3,-8.402292E-2,-1.0671434E-1,1.2165972E-1,-4.7746547E-2,-1.676967E-1,1.261592E-1,-1.0598134E-1,-4.481397E-2,1.7455642E-1,1.5261589E-2,-9.7895496E-2,1.8497409E-1,-4.345604E-2,-1.545134E-2,-1.4081997E-1,1.3383394E-1,-5.4694675E-2,-1.22617E-1,1.369948E-1,-2.5506087E-2,7.12256E-2,-3.400617E-2,-1.4566109E-1,6.2168833E-2,-6.0068212E-2,1.4684342E-1,-2.0410217E-2,5.9605412E-2,-1.0636816E-1,-1.4693955E-2,6.996495E-2,1.458027E-1,-2.8991723E-2,1.4067356E-1,-8.043581E-3,4.3143846E-2,-5.3585064E-2],"split_indices":[20,17,27,17,0,31,5,34,25,15,2,35,0,4,20,15,0,15,12,14,2,5,26,0,7,0,5,0,0,12,5,26,17,20,24,20,3,16,30,5,23,2,35,5,28,20,2,0,0,0,0,0,0,0,0,0,0,0,0,0,0,0,0,0,0,0,0,0,0,0,0,0,0,0,0,0,0,0,0,0,0,0,0,0,0],"split_type":[0,0,0,0,0,0,0,0,0,0,0,0,0,0,0,0,0,0,0,0,0,0,0,0,0,0,0,0,0,0,0,0,0,0,0,0,0,0,0,0,0,0,0,0,0,0,0,0,0,0,0,0,0,0,0,0,0,0,0,0,0,0,0,0,0,0,0,0,0,0,0,0,0,0,0,0,0,0,0,0,0,0,0,0,0],"sum_hessian":[5.206486E2,4.9009583E1,4.7163904E2,4.6884155E1,2.1254287E0,2.34371E2,2.3726804E2,3.0658514E1,1.6225641E1,4.7305E1,1.87066E2,6.071637E1,1.7655167E2,2.791053E1,2.7479844E0,1.509266E1,1.1329807E0,2.2478191E1,2.4826809E1,2.0699413E1,1.6636658E2,2.2550642E1,3.8165726E1,1.2784931E2,4.8702354E1,1.2219965E0,2.6688534E1,1.6723942E0,1.0755904E0,3.4643087E0,1.1628351E1,1.3261895E1,9.216297E0,2.0786337E1,4.040473E0,1.6262299E1,4.4371133E0,1.0038107E1,1.5632848E2,3.3596563E0,1.9190987E1,2.1665434E1,1.6500294E1,3.5821827E1,9.202748E1,1.0316148E1,3.8386204E1,1.0900829E1,1.57877035E1,2.2958996E0,1.1684091E0,3.2407322E0,8.387619E0,8.170807E0,5.0910873E0,1.3862159E0,7.8300815E0,